{"learner":{"attributes":{"best_iteration":"129","best_score":"0.4944945228998561"},"feature_names":[],"feature_types":[],"gradient_booster":{"model":{"cats":{"enc":[],"feature_segments":[],"sorted_idx":[]},"gbtree_model_param":{"num_parallel_tree":"1","num_trees":"170"},"iteration_indptr":[0,1,2,3,4,5,6,7,8,9,10,11,12,13,14,15,16,17,18,19,20,21,22,23,24,25,26,27,28,29,30,31,32,33,34,35,36,37,38,39,40,41,42,43,44,45,46,47,48,49,50,51,52,53,54,55,56,57,58,59,60,61,62,63,64,65,66,67,68,69,70,71,72,73,74,75,76,77,78,79,80,81,82,83,84,85,86,87,88,89,90,91,92,93,94,95,96,97,98,99,100,101,102,103,104,105,106,107,108,109,110,111,112,113,114,115,116,117,118,119,120,121,122,123,124,125,126,127,128,129,130,131,132,133,134,135,136,137,138,139,140,141,142,143,144,145,146,147,148,149,150,151,152,153,154,155,156,157,158,159,160,161,162,163,164,165,166,167,168,169,170],"tree_info":[0,0,0,0,0,0,0,0,0,0,0,0,0,0,0,0,0,0,0,0,0,0,0,0,0,0,0,0,0,0,0,0,0,0,0,0,0,0,0,0,0,0,0,0,0,0,0,0,0,0,0,0,0,0,0,0,0,0,0,0,0,0,0,0,0,0,0,0,0,0,0,0,0,0,0,0,0,0,0,0,0,0,0,0,0,0,0,0,0,0,0,0,0,0,0,0,0,0,0,0,0,0,0,0,0,0,0,0,0,0,0,0,0,0,0,0,0,0,0,0,0,0,0,0,0,0,0,0,0,0,0,0,0,0,0,0,0,0,0,0,0,0,0,0,0,0,0,0,0,0,0,0,0,0,0,0,0,0,0,0,0,0,0,0,0,0,0,0,0,0],"trees":[{"base_weights":[2.3028413E-2,-9.818677E-1,5.1417345E-1,-1.121177E0,-3.65863E-1,1.6750541E-1,1.2043723E0,-1.5685079E0,-9.77741E-1,-5.761191E-1,6.233134E-1,-2.2032008E-1,2.9349893E-1,7.145552E-1,1.3329251E0,-6.492068E-2,9.4850815E-4,-5.4479763E-2,-3.3244763E-2,-3.2985337E-2,1.4492888E-3,-4.357585E-2,4.2756174E-2,-2.1317072E-2,1.0021225E-2,-1.2455063E-3,1.8458705E-2,6.9912598E-3,4.1086774E-2,5.5588823E-2,1.9886881E-2],"categories":[],"categories_nodes":[],"categories_segments":[],"categories_sizes":[],"default_left":[0,0,0,0,0,0,0,0,0,0,0,0,0,0,0,0,0,0,0,0,0,0,0,0,0,0,0,0,0,0,0],"id":0,"left_children":[1,3,5,7,9,11,13,15,17,19,21,23,25,27,29,-1,-1,-1,-1,-1,-1,-1,-1,-1,-1,-1,-1,-1,-1,-1,-1],"loss_changes":[3.6065576E2,2.017746E1,1.1723401E2,1.0989426E1,9.870573E0,1.6085655E1,9.370209E0,4.0076447E0,7.3438873E0,5.8484774E0,7.6491556E0,1.2051396E1,1.3532249E1,5.935007E0,5.4180756E0,0E0,0E0,0E0,0E0,0E0,0E0,0E0,0E0,0E0,0E0,0E0,0E0,0E0,0E0,0E0,0E0],"parents":[2147483647,0,0,1,1,2,2,3,3,4,4,5,5,6,6,7,7,8,8,9,9,10,10,11,11,12,12,13,13,14,14],"right_children":[2,4,6,8,10,12,14,16,18,20,22,24,26,28,30,-1,-1,-1,-1,-1,-1,-1,-1,-1,-1,-1,-1,-1,-1,-1,-1],"split_conditions":[-4.2604294E1,5.7337217E-2,7.32089E1,-1.826686E2,2.9298207E-1,-3.9088628E-1,8.5701026E-2,9.1642433E-1,-8.235911E-1,-1.4545454E-1,-4.7179487E-1,1.2531328E-2,-4.1065323E-1,1.9792284E-1,5.0837375E-2,-6.492068E-2,9.4850815E-4,-5.4479763E-2,-3.3244763E-2,-3.2985337E-2,1.4492888E-3,-4.357585E-2,4.2756174E-2,-2.1317072E-2,1.0021225E-2,-1.2455063E-3,1.8458705E-2,6.9912598E-3,4.1086774E-2,5.5588823E-2,1.9886881E-2],"split_indices":[0,9,0,0,6,9,9,6,9,3,3,3,6,6,8,0,0,0,0,0,0,0,0,0,0,0,0,0,0,0,0],"split_type":[0,0,0,0,0,0,0,0,0,0,0,0,0,0,0,0,0,0,0,0,0,0,0,0,0,0,0,0,0,0,0],"sum_hessian":[7.2871545E2,2.3890672E2,4.8980875E2,1.9417418E2,4.4732536E1,3.2687238E2,1.6293639E2,4.4732536E1,1.4944165E2,3.7235462E1,7.4970727E0,7.996878E1,2.469036E2,3.523624E1,1.2770014E2,4.323312E1,1.4994146E0,3.898478E1,1.1045687E2,2.6239756E1,1.0995707E1,1.2495122E0,6.2475605E0,4.7981266E1,3.198751E1,8.446702E1,1.6243658E2,1.3494731E1,2.174151E1,1.1895355E2,8.746585E0],"tree_param":{"num_deleted":"0","num_feature":"24","num_nodes":"31","size_leaf_vector":"1"}},{"base_weights":[-9.191383E-4,-9.147624E-1,5.184424E-1,-1.307927E0,-6.7887294E-1,1.6143624E-1,1.1807024E0,-1.3645588E0,-3.7342593E-2,-1.424794E-1,-7.6252526E-1,-1.0632226E-1,3.2229123E-1,1.0899891E0,7.3011234E-2,-5.7541516E-2,-1.0940431E-2,4.136666E-2,-4.0632386E-2,-3.7551634E-2,1.5918143E-2,-3.2463413E-2,7.347776E-3,-2.1706942E-2,1.0895688E-2,8.549195E-3,4.8155513E-2,-1.3245314E-2,4.4479527E-2],"categories":[],"categories_nodes":[],"categories_segments":[],"categories_sizes":[],"default_left":[0,0,0,0,0,0,0,0,0,0,0,0,0,0,0,0,0,0,0,0,0,0,0,0,0,0,0,0,0],"id":1,"left_children":[1,3,5,7,9,11,13,15,17,19,21,23,25,27,-1,-1,-1,-1,-1,-1,-1,-1,-1,-1,-1,-1,-1,-1,-1],"loss_changes":[3.4883478E2,2.3813538E1,1.1061124E2,7.0579834E0,7.454071E0,1.3198956E1,7.5991516E0,7.238327E0,6.5482516E0,1.0688621E1,6.906975E0,1.9228209E1,1.804135E1,4.940155E0,0E0,0E0,0E0,0E0,0E0,0E0,0E0,0E0,0E0,0E0,0E0,0E0,0E0,0E0,0E0],"parents":[2147483647,0,0,1,1,2,2,3,3,4,4,5,5,6,6,7,7,8,8,9,9,10,10,11,11,12,12,13,13],"right_children":[2,4,6,8,10,12,14,16,18,20,22,24,26,28,-1,-1,-1,-1,-1,-1,-1,-1,-1,-1,-1,-1,-1,-1,-1],"split_conditions":[-3.1804272E1,-1.2388594E2,7.32089E1,7.264958E-1,-4.6275327E-1,-2.6034093E-1,2.4531944E2,6.069451E-1,-2.6726683E-3,-2.2142613E-2,2.6189437E-2,8.389332E-1,4.414094E-1,9.557945E-2,7.3011234E-2,-5.7541516E-2,-1.0940431E-2,4.136666E-2,-4.0632386E-2,-3.7551634E-2,1.5918143E-2,-3.2463413E-2,7.347776E-3,-2.1706942E-2,1.0895688E-2,8.549195E-3,4.8155513E-2,-1.3245314E-2,4.4479527E-2],"split_indices":[0,0,0,6,14,5,0,5,15,8,15,6,6,3,0,0,0,0,0,0,0,0,0,0,0,0,0,0,0],"split_type":[0,0,0,0,0,0,0,0,0,0,0,0,0,0,0,0,0,0,0,0,0,0,0,0,0,0,0,0,0],"sum_hessian":[7.329855E2,2.6534174E2,4.6764374E2,9.7796486E1,1.6754526E2,3.0465588E2,1.6298784E2,9.355274E1,4.243748E0,2.2968758E1,1.445765E2,1.1446199E2,1.9019391E2,1.4523895E2,1.7748886E1,8.731388E1,6.238858E0,1.9983981E0,2.24535E0,8.988043E0,1.3980715E1,1.375852E2,6.991292E0,5.298278E1,6.147921E1,1.7044717E2,1.974673E1,1.9998349E0,1.4323912E2],"tree_param":{"num_deleted":"0","num_feature":"24","num_nodes":"29","size_leaf_vector":"1"}},{"base_weights":[1.9255693E-3,-6.8172675E-1,6.2581146E-1,-1.2124058E0,-4.7323367E-1,2.5118312E-1,1.1271554E0,-1.3948032E0,-8.036603E-1,-6.682719E-1,-2.0239359E-1,-7.153368E-2,3.783336E-1,6.763795E-1,1.2336423E0,-5.8017768E-2,-3.365667E-3,7.474681E-3,-4.0055238E-2,-2.8583486E-2,1.4028708E-2,-2.5009079E-2,1.8413278E-3,-1.3319017E-2,1.710728E-2,1.1653789E-2,3.468759E-2,3.5014555E-2,-3.6506462E-3,5.0310258E-2,-2.7865063E-2],"categories":[],"categories_nodes":[],"categories_segments":[],"categories_sizes":[],"default_left":[0,0,0,0,0,0,0,0,0,0,0,0,0,0,0,0,0,0,0,0,0,0,0,0,0,0,0,0,0,0,0],"id":2,"left_children":[1,3,5,7,9,11,13,15,17,19,21,23,25,27,29,-1,-1,-1,-1,-1,-1,-1,-1,-1,-1,-1,-1,-1,-1,-1,-1],"loss_changes":[3.102379E2,3.7826187E1,7.1145096E1,6.129669E0,1.3113518E1,9.01124E0,6.959137E0,4.6828003E0,6.526125E0,7.111519E0,1.1209005E1,8.3289E0,6.4332523E0,5.157117E0,6.9328766E0,0E0,0E0,0E0,0E0,0E0,0E0,0E0,0E0,0E0,0E0,0E0,0E0,0E0,0E0,0E0,0E0],"parents":[2147483647,0,0,1,1,2,2,3,3,4,4,5,5,6,6,7,7,8,8,9,9,10,10,11,11,12,12,13,13,14,14],"right_children":[2,4,6,8,10,12,14,16,18,20,22,24,26,28,30,-1,-1,-1,-1,-1,-1,-1,-1,-1,-1,-1,-1,-1,-1,-1,-1],"split_conditions":[-7.66492E0,-1.2388594E2,7.32089E1,-3.446955E-1,-4.2604294E1,-2.4920885E-1,8.5701026E-2,8.5589015E-1,-5E0,2.6189437E-2,-3.0225733E-1,1.3333334E-1,1.4506973E0,7.7299667E-3,1E0,-5.8017768E-2,-3.365667E-3,7.474681E-3,-4.0055238E-2,-2.8583486E-2,1.4028708E-2,-2.5009079E-2,1.8413278E-3,-1.3319017E-2,1.710728E-2,1.1653789E-2,3.468759E-2,3.5014555E-2,-3.6506462E-3,5.0310258E-2,-2.7865063E-2],"split_indices":[0,0,0,9,0,9,9,6,16,15,9,3,5,15,3,0,0,0,0,0,0,0,0,0,0,0,0,0,0,0,0],"split_type":[0,0,0,0,0,0,0,0,0,0,0,0,0,0,0,0,0,0,0,0,0,0,0,0,0,0,0,0,0,0,0],"sum_hessian":[7.2536816E2,3.460619E2,3.793063E2,9.6253075E1,2.498088E2,2.179469E2,1.613594E2,6.48861E1,3.1366978E1,1.443742E2,1.054346E2,6.1724133E1,1.5622278E2,3.2238907E1,1.291205E2,6.214138E1,2.7447205E0,5.2284985E0,2.613848E1,1.3838313E2,5.991084E0,3.8458977E1,6.6975624E1,4.0727787E1,2.0996346E1,1.3397818E2,2.2244596E1,2.549097E1,6.747936E0,1.2787145E2,1.2490454E0],"tree_param":{"num_deleted":"0","num_feature":"24","num_nodes":"31","size_leaf_vector":"1"}},{"base_weights":[-1.35856075E-2,-6.032684E-1,6.888707E-1,-9.6209145E-1,-2.0780456E-1,2.7722773E-1,1.0496991E0,-1.2905402E0,-7.5181156E-1,-2.5461623E-1,7.416053E-1,5.15973E-2,4.7791612E-1,6.0356635E-1,1.1731888E0,1.2508679E-2,-5.278801E-2,-3.209528E-2,1.1661197E-2,-2.528989E-2,-4.8340047E-3,4.505117E-2,-4.899649E-3,6.1682374E-3,-4.245484E-2,-1.8515915E-2,2.136842E-2,3.2063264E-2,-1.7281314E-3,8.867151E-3,4.98893E-2],"categories":[],"categories_nodes":[],"categories_segments":[],"categories_sizes":[],"default_left":[0,0,0,0,0,0,0,0,0,0,0,0,0,0,0,0,0,0,0,0,0,0,0,0,0,0,0,0,0,0,0],"id":3,"left_children":[1,3,5,7,9,11,13,15,17,19,21,23,25,27,29,-1,-1,-1,-1,-1,-1,-1,-1,-1,-1,-1,-1,-1,-1,-1,-1],"loss_changes":[3.0431094E2,5.647142E1,4.950815E1,1.34721985E1,8.689119E0,7.1283855E0,9.11528E0,4.16333E0,7.0869064E0,9.168612E0,3.2102175E0,8.783993E0,4.668825E0,5.2490044E0,9.487732E0,0E0,0E0,0E0,0E0,0E0,0E0,0E0,0E0,0E0,0E0,0E0,0E0,0E0,0E0,0E0,0E0],"parents":[2147483647,0,0,1,1,2,2,3,3,4,4,5,5,6,6,7,7,8,8,9,9,10,10,11,11,12,12,13,13,14,14],"right_children":[2,4,6,8,10,12,14,16,18,20,22,24,26,28,30,-1,-1,-1,-1,-1,-1,-1,-1,-1,-1,-1,-1,-1,-1,-1,-1],"split_conditions":[5.3706827E0,-5.6140354E1,6.4856705E1,-1.437075E2,8.887361E-2,-3E0,7.459954E-2,-3.53E2,2.3072178E-2,-4.8138726E-1,0E0,-1.2E1,-1.2365497E0,-2.6238827E-2,-3.3333334E-1,1.2508679E-2,-5.278801E-2,-3.209528E-2,1.1661197E-2,-2.528989E-2,-4.8340047E-3,4.505117E-2,-4.899649E-3,6.1682374E-3,-4.245484E-2,-1.8515915E-2,2.136842E-2,3.2063264E-2,-1.7281314E-3,8.867151E-3,4.98893E-2],"split_indices":[0,0,0,0,7,21,9,21,15,9,2,21,9,9,11,0,0,0,0,0,0,0,0,0,0,0,0,0,0,0,0],"split_type":[0,0,0,0,0,0,0,0,0,0,0,0,0,0,0,0,0,0,0,0,0,0,0,0,0,0,0,0,0,0,0],"sum_hessian":[7.3264557E2,3.9837094E2,3.342746E2,2.0811005E2,1.9026091E2,1.5696869E2,1.7730591E2,7.922561E1,1.2888443E2,1.8201813E2,8.242781E0,7.4484344E1,8.2484344E1,3.971492E1,1.3759099E2,1.2415173E0,7.798409E1,1.2314651E2,5.7379236E0,4.663572E1,1.353824E2,5.4937043E0,2.7490766E0,6.898575E1,5.4986024E0,4.2490873E0,7.823526E1,3.0222593E1,9.492327E0,1.0222261E1,1.2736873E2],"tree_param":{"num_deleted":"0","num_feature":"24","num_nodes":"31","size_leaf_vector":"1"}},{"base_weights":[8.709532E-3,-5.643416E-1,6.8801796E-1,-9.3682015E-1,-2.1242568E-1,3.827897E-1,1.0623035E0,-1.2195958E0,-6.7999685E-1,-5.762104E-1,-6.621126E-2,-5.093083E-1,4.2560643E-1,5.599994E-1,1.189288E0,-5.3722218E-2,-3.3134047E-2,1.0738284E-2,-3.1020408E-2,4.4237506E-3,-2.9972188E-2,-1.7774843E-2,3.6322703E-3,-3.5492785E-2,3.3114728E-2,-3.6138166E-2,1.7755223E-2,3.363542E-2,-5.931294E-3,3.6792506E-2,5.7866886E-2],"categories":[],"categories_nodes":[],"categories_segments":[],"categories_sizes":[],"default_left":[0,0,0,0,0,0,0,0,0,0,0,0,0,0,0,0,0,0,0,0,0,0,0,0,0,0,0,0,0,0,0],"id":4,"left_children":[1,3,5,7,9,11,13,15,17,19,21,23,25,27,29,-1,-1,-1,-1,-1,-1,-1,-1,-1,-1,-1,-1,-1,-1,-1,-1],"loss_changes":[2.8549615E2,5.1947716E1,3.793094E1,1.318486E1,1.0911106E1,7.336857E0,8.912857E0,3.2629852E0,9.573936E0,7.0833874E0,8.826101E0,5.279825E0,4.7342377E0,6.529519E0,6.921707E0,0E0,0E0,0E0,0E0,0E0,0E0,0E0,0E0,0E0,0E0,0E0,0E0,0E0,0E0,0E0,0E0],"parents":[2147483647,0,0,1,1,2,2,3,3,4,4,5,5,6,6,7,7,8,8,9,9,10,10,11,11,12,12,13,13,14,14],"right_children":[2,4,6,8,10,12,14,16,18,20,22,24,26,28,30,-1,-1,-1,-1,-1,-1,-1,-1,-1,-1,-1,-1,-1,-1,-1,-1],"split_conditions":[4.5045046E-3,-6.400229E1,8.0871E1,-4.9956426E-1,-1.4705883E-1,-1.5690294E1,8.5701026E-2,-1.02039734E2,-4.756551E-1,-5.8944304E-2,-3.9088628E-1,5.1887614E-1,-3.2670177E1,-3.313041E-2,3.330297E-1,-5.3722218E-2,-3.3134047E-2,1.0738284E-2,-3.1020408E-2,4.4237506E-3,-2.9972188E-2,-1.7774843E-2,3.6322703E-3,-3.5492785E-2,3.3114728E-2,-3.6138166E-2,1.7755223E-2,3.363542E-2,-5.931294E-3,3.6792506E-2,5.7866886E-2],"split_indices":[3,0,0,9,12,0,9,0,14,7,9,9,1,9,6,0,0,0,0,0,0,0,0,0,0,0,0,0,0,0,0],"split_type":[0,0,0,0,0,0,0,0,0,0,0,0,0,0,0,0,0,0,0,0,0,0,0,0,0,0,0,0,0,0,0],"sum_hessian":[7.3140076E2,3.9682028E2,3.345805E2,1.9197066E2,2.0484962E2,1.854057E2,1.491748E2,8.958461E1,1.0238605E2,5.7886322E1,1.4696329E2,7.992149E0,1.7741354E2,3.1193743E1,1.1798106E2,6.624712E1,2.3337482E1,9.20172E0,9.3184326E1,1.1724983E1,4.616134E1,4.2581234E1,1.04382065E2,6.4930325E0,1.4991162E0,1.7493092E0,1.7566425E2,2.220185E1,8.991893E0,5.9871082E1,5.8109974E1],"tree_param":{"num_deleted":"0","num_feature":"24","num_nodes":"31","size_leaf_vector":"1"}},{"base_weights":[1.7276606E-4,-5.3953433E-1,6.232519E-1,-8.634565E-1,-1.7072062E-1,2.8396448E-1,9.789714E-1,-9.548817E-1,1.4171842E-2,-6.921812E-1,-6.050403E-2,1.32564185E-2,4.3810087E-1,1.0303355E0,1.7139335E-1,-4.6992686E-2,-2.9021962E-2,-1.5469292E-2,4.8392892E-2,1.9238953E-2,-3.4024995E-2,-4.9069882E-3,3.9717503E-2,-9.49193E-3,3.1971987E-2,2.468669E-2,-9.217795E-4,2.4379287E-2,4.5486305E-2,2.2603223E-2,-4.3878306E-2],"categories":[],"categories_nodes":[],"categories_segments":[],"categories_sizes":[],"default_left":[0,0,0,0,0,0,0,0,0,0,0,0,0,0,0,0,0,0,0,0,0,0,0,0,0,0,0,0,0,0,0],"id":5,"left_children":[1,3,5,7,9,11,13,15,17,19,21,23,25,27,29,-1,-1,-1,-1,-1,-1,-1,-1,-1,-1,-1,-1,-1,-1,-1,-1],"loss_changes":[2.4845512E2,4.7150047E1,4.1110535E1,1.6906189E1,1.0669512E1,7.37665E0,6.7507324E0,8.765488E0,1.0461254E1,6.435809E0,1.0269844E1,1.3034849E1,9.320963E0,6.356827E0,6.205486E0,0E0,0E0,0E0,0E0,0E0,0E0,0E0,0E0,0E0,0E0,0E0,0E0,0E0,0E0,0E0,0E0],"parents":[2147483647,0,0,1,1,2,2,3,3,4,4,5,5,6,6,7,7,8,8,9,9,10,10,11,11,12,12,13,13,14,14],"right_children":[2,4,6,8,10,12,14,16,18,20,22,24,26,28,30,-1,-1,-1,-1,-1,-1,-1,-1,-1,-1,-1,-1,-1,-1,-1,-1],"split_conditions":[4.5045046E-3,-5.3650536E1,7.32089E1,2.5826716E-1,-5.855661E-2,-1E0,5.0837375E-2,-4.9956426E-1,-1.4545454E-1,-9.632671E-2,8.574595E-2,6.659971E-3,5.386282E-1,8.5701026E-2,1.3486285E1,-4.6992686E-2,-2.9021962E-2,-1.5469292E-2,4.8392892E-2,1.9238953E-2,-3.4024995E-2,-4.9069882E-3,3.9717503E-2,-9.49193E-3,3.1971987E-2,2.468669E-2,-9.217795E-4,2.4379287E-2,4.5486305E-2,2.2603223E-2,-4.3878306E-2],"split_indices":[3,0,0,9,8,16,8,9,3,7,7,15,1,9,18,0,0,0,0,0,0,0,0,0,0,0,0,0,0,0,0],"split_type":[0,0,0,0,0,0,0,0,0,0,0,0,0,0,0,0,0,0,0,0,0,0,0,0,0,0,0,0,0,0,0],"sum_hessian":[7.368335E2,3.9490417E2,3.4192932E2,2.0953358E2,1.8537059E2,1.7592719E2,1.6600214E2,1.8968544E2,1.9848146E1,3.1422617E1,1.5394797E2,6.422155E1,1.1170563E2,1.5581601E2,1.0186141E1,9.472203E1,9.496341E1,1.5370827E1,4.4773207E0,3.4966865E0,2.792593E1,1.462031E2,7.7448797E0,4.922802E1,1.4993533E1,8.0218E1,3.1487623E1,3.2900734E1,1.2291527E2,8.1964855E0,1.989655E0],"tree_param":{"num_deleted":"0","num_feature":"24","num_nodes":"31","size_leaf_vector":"1"}},{"base_weights":[2.738166E-2,-4.101043E-1,4.7187972E-1,-6.252839E-1,1.3414967E-1,2.3351596E-1,9.34899E-1,-9.207986E-1,-4.1245425E-1,-1.4349166E-1,4.0399855E-1,-2.0221166E-1,4.9014783E-1,5.739875E-1,1.2484177E0,-4.425227E-2,-2.1260127E-2,-2.2274122E-2,1.7569112E-2,3.3627954E-4,-6.316691E-2,-4.910707E-4,3.4648202E-2,-3.2735523E-2,-1.2379289E-3,6.6850465E-3,2.9432792E-2,-1.9347968E-2,3.028336E-2,5.5617128E-2,1.5347285E-2],"categories":[],"categories_nodes":[],"categories_segments":[],"categories_sizes":[],"default_left":[0,0,0,0,0,0,0,0,0,0,0,0,0,0,0,0,0,0,0,0,0,0,0,0,0,0,0,0,0,0,0],"id":6,"left_children":[1,3,5,7,9,11,13,15,17,19,21,23,25,27,29,-1,-1,-1,-1,-1,-1,-1,-1,-1,-1,-1,-1,-1,-1,-1,-1],"loss_changes":[1.4074782E2,4.2806644E1,3.9401794E1,1.607428E1,7.86379E0,2.6748169E1,1.3050407E1,7.2634354E0,1.9170904E1,1.137296E1,1.0226782E1,9.371288E0,1.1802395E1,1.1677811E1,7.357437E0,0E0,0E0,0E0,0E0,0E0,0E0,0E0,0E0,0E0,0E0,0E0,0E0,0E0,0E0,0E0,0E0],"parents":[2147483647,0,0,1,1,2,2,3,3,4,4,5,5,6,6,7,7,8,8,9,9,10,10,11,11,12,12,13,13,14,14],"right_children":[2,4,6,8,10,12,14,16,18,20,22,24,26,28,30,-1,-1,-1,-1,-1,-1,-1,-1,-1,-1,-1,-1,-1,-1,-1,-1],"split_conditions":[0E0,8.3333336E-2,3.5168362E-1,-3.1845376E-1,2.2878827E-1,3.8092086E-1,-2.6034093E-1,3.027831E-1,-8.5439615E-2,5.3361524E-2,-6.890679E-1,-3E-1,5E-2,5.5997956E-1,4.461457E-2,-4.425227E-2,-2.1260127E-2,-2.2274122E-2,1.7569112E-2,3.3627954E-4,-6.316691E-2,-4.910707E-4,3.4648202E-2,-3.2735523E-2,-1.2379289E-3,6.6850465E-3,2.9432792E-2,-1.9347968E-2,3.028336E-2,5.5617128E-2,1.5347285E-2],"split_indices":[9,4,6,6,6,5,5,14,5,8,5,4,4,6,8,0,0,0,0,0,0,0,0,0,0,0,0,0,0,0,0],"split_type":[0,0,0,0,0,0,0,0,0,0,0,0,0,0,0,0,0,0,0,0,0,0,0,0,0,0,0,0,0,0,0],"sum_hessian":[7.217867E2,3.6380157E2,3.579851E2,2.6061453E2,1.0318706E2,2.3731761E2,1.2066751E2,1.0771937E2,1.5289516E2,5.1089993E1,5.2097065E1,8.8043396E1,1.4927422E2,5.7409985E1,6.3257523E1,7.170735E1,3.6012012E1,1.310264E2,2.186876E1,4.710076E1,3.989233E0,2.792264E1,2.4174427E1,1.83271E1,6.971629E1,6.5211365E1,8.406284E1,8.229453E0,4.918053E1,5.381232E1,9.445205E0],"tree_param":{"num_deleted":"0","num_feature":"24","num_nodes":"31","size_leaf_vector":"1"}},{"base_weights":[4.943572E-3,-5.700256E-1,5.0005627E-1,-8.081526E-1,-2.0329516E-1,1.8292215E-1,9.216131E-1,-8.832743E-1,4.2045265E-2,-4.922256E-1,2.7981887E-3,3.8012746E-1,1.2403981E-2,-4.7188318E-1,9.6059644E-1,-3.8507126E-2,-1.27189895E-2,4.214427E-2,-1.248083E-2,-2.5273122E-2,2.4359783E-2,-1.777972E-2,1.2096407E-2,1.7245557E-2,-3.9708987E-2,1.585477E-2,-5.8495975E-3,-5.986873E-2,2.4833716E-2,3.2541405E-2,5.1045895E-2],"categories":[],"categories_nodes":[],"categories_segments":[],"categories_sizes":[],"default_left":[0,0,0,0,0,0,0,0,0,0,0,0,0,0,0,0,0,0,0,0,0,0,0,0,0,0,0,0,0,0,0],"id":7,"left_children":[1,3,5,7,9,11,13,15,17,19,21,23,25,27,29,-1,-1,-1,-1,-1,-1,-1,-1,-1,-1,-1,-1,-1,-1,-1,-1],"loss_changes":[2.0539917E2,2.8989677E1,5.166017E1,1.2943375E1,7.9072146E0,7.47692E0,9.481247E0,8.030121E0,6.5463986E0,8.883241E0,1.0652696E1,7.650817E0,7.389016E0,6.74497E0,6.4793243E0,0E0,0E0,0E0,0E0,0E0,0E0,0E0,0E0,0E0,0E0,0E0,0E0,0E0,0E0,0E0,0E0],"parents":[2147483647,0,0,1,1,2,2,3,3,4,4,5,5,6,6,7,7,8,8,9,9,10,10,11,11,12,12,13,13,14,14],"right_children":[2,4,6,8,10,12,14,16,18,20,22,24,26,28,30,-1,-1,-1,-1,-1,-1,-1,-1,-1,-1,-1,-1,-1,-1,-1,-1],"split_conditions":[-9.0453205E0,-5.3650536E1,7.32089E1,3.182909E-1,-3.254281E-1,1E0,-1.4762338E0,5.5997956E-1,-9.3E1,3.3333334E-1,-4.94576E0,1.6580425E1,-7.911284E0,3.0684092E0,8.0553216E-1,-3.8507126E-2,-1.27189895E-2,4.214427E-2,-1.248083E-2,-2.5273122E-2,2.4359783E-2,-1.777972E-2,1.2096407E-2,1.7245557E-2,-3.9708987E-2,1.585477E-2,-5.8495975E-3,-5.986873E-2,2.4833716E-2,3.2541405E-2,5.1045895E-2],"split_indices":[0,0,0,9,6,2,6,6,21,11,18,1,17,5,9,0,0,0,0,0,0,0,0,0,0,0,0,0,0,0,0],"split_type":[0,0,0,0,0,0,0,0,0,0,0,0,0,0,0,0,0,0,0,0,0,0,0,0,0,0,0,0,0,0,0],"sum_hessian":[7.195215E2,3.3284302E2,3.8667844E2,2.0107588E2,1.3176715E2,2.2148834E2,1.6519011E2,1.8471588E2,1.6360006E1,5.428063E1,7.748653E1,1.0213701E2,1.19351326E2,4.193259E0,1.6099684E2,1.6134926E2,2.3366621E1,3.7294078E0,1.2630599E1,4.8551914E1,5.728714E0,3.0888893E1,4.659763E1,9.913921E1,2.9977925E0,3.4456913E1,8.489442E1,1.9730674E0,2.220191E0,1.1225771E2,4.8739132E1],"tree_param":{"num_deleted":"0","num_feature":"24","num_nodes":"31","size_leaf_vector":"1"}},{"base_weights":[-1.573832E-2,-4.8553205E-1,5.490829E-1,-8.1154656E-1,-1.8206301E-1,2.1296921E-1,7.719136E-1,-1.227572E0,-5.849185E-1,-8.4659654E-1,-1.06830314E-1,-1.7657874E-2,5.3279096E-1,-1.6269344E-1,8.259791E-1,-5.288497E-2,-1.0143239E-2,-3.7215608E-3,-2.7977474E-2,-4.516825E-2,1.1328736E-2,-1.23540955E-2,4.581066E-3,2.327658E-2,-7.5814673E-3,9.349171E-3,4.8220444E-2,-2.5956599E-2,2.2531493E-2,-1.4423636E-2,3.4867346E-2],"categories":[],"categories_nodes":[],"categories_segments":[],"categories_sizes":[],"default_left":[0,0,0,0,0,0,0,0,0,0,0,0,0,0,0,0,0,0,0,0,0,0,0,0,0,0,0,0,0,0,0],"id":8,"left_children":[1,3,5,7,9,11,13,15,17,19,21,23,25,27,29,-1,-1,-1,-1,-1,-1,-1,-1,-1,-1,-1,-1,-1,-1,-1,-1],"loss_changes":[1.9297218E2,3.9129448E1,2.4568985E1,1.7299522E1,1.0253355E1,9.821892E0,1.0149483E1,5.7871323E0,7.0110207E0,6.992056E0,8.397886E0,8.1755905E0,1.09383955E1,4.486318E0,1.0484222E1,0E0,0E0,0E0,0E0,0E0,0E0,0E0,0E0,0E0,0E0,0E0,0E0,0E0,0E0,0E0,0E0],"parents":[2147483647,0,0,1,1,2,2,3,3,4,4,5,5,6,6,7,7,8,8,9,9,10,10,11,11,12,12,13,13,14,14],"right_children":[2,4,6,8,10,12,14,16,18,20,22,24,26,28,30,-1,-1,-1,-1,-1,-1,-1,-1,-1,-1,-1,-1,-1,-1,-1,-1],"split_conditions":[4.5045046E-3,-2.0915033E-1,1.8390805E-1,-7.822342E-1,-5.855661E-2,5.12107E-3,-4.6666667E-1,5.4337688E-2,-2.8385425E-1,1.27E2,-4.548527E-2,-3.347903E-1,5.669478E-1,6E0,-2E0,-5.288497E-2,-1.0143239E-2,-3.7215608E-3,-2.7977474E-2,-4.516825E-2,1.1328736E-2,-1.23540955E-2,4.581066E-3,2.327658E-2,-7.5814673E-3,9.349171E-3,4.8220444E-2,-2.5956599E-2,2.2531493E-2,-1.4423636E-2,3.4867346E-2],"split_indices":[3,3,3,9,8,8,11,8,14,21,9,14,5,19,2,0,0,0,0,0,0,0,0,0,0,0,0,0,0,0,0],"split_type":[0,0,0,0,0,0,0,0,0,0,0,0,0,0,0,0,0,0,0,0,0,0,0,0,0,0,0,0,0,0,0],"sum_hessian":[7.252332E2,3.959989E2,3.292343E2,1.901008E2,2.0589812E2,1.3203339E2,1.9720093E2,6.5480446E1,1.2462035E2,1.9896698E1,1.8600142E2,7.726297E1,5.4770412E1,1.0674045E1,1.8652687E2,5.936047E1,6.1199727E0,2.3876854E1,1.007435E2,1.5916032E1,3.9806666E0,9.704121E1,8.8960205E1,1.6682627E1,6.0580345E1,3.8847824E1,1.592259E1,6.4561973E0,4.217848E0,6.6626787E0,1.798642E2],"tree_param":{"num_deleted":"0","num_feature":"24","num_nodes":"31","size_leaf_vector":"1"}},{"base_weights":[-7.988101E-3,-5.431011E-1,4.5456833E-1,-1.022598E0,-3.8289377E-1,1.9319487E-1,8.596271E-1,2.2813529E-2,-1.0582513E0,-4.2351627E-1,5.5185163E-1,2.4696898E-1,-2.780394E-1,7.013104E-1,1.2512189E0,-4.3808073E-2,1.753011E-2,-2.7267065E-2,-9.8478235E-3,-9.45631E-3,4.988686E-2,4.386161E-2,8.120469E-3,2.5049457E-2,-2.1562321E-2,1.4343399E-2,3.984278E-2,-8.552324E-3,5.38553E-2],"categories":[],"categories_nodes":[],"categories_segments":[],"categories_sizes":[],"default_left":[0,0,0,0,0,0,0,0,0,0,0,0,0,0,0,0,0,0,0,0,0,0,0,0,0,0,0,0,0],"id":9,"left_children":[1,3,5,7,9,11,13,-1,15,17,19,21,23,25,27,-1,-1,-1,-1,-1,-1,-1,-1,-1,-1,-1,-1,-1,-1],"loss_changes":[1.7848222E2,2.5290062E1,4.078202E1,5.324608E0,9.8096695E0,6.058338E0,8.5086975E0,0E0,4.9953537E0,1.0921661E1,6.2895355E0,7.7202415E0,6.163032E0,1.076413E1,6.1869583E0,0E0,0E0,0E0,0E0,0E0,0E0,0E0,0E0,0E0,0E0,0E0,0E0,0E0,0E0],"parents":[2147483647,0,0,1,1,2,2,3,3,4,4,5,5,6,6,8,8,9,9,10,10,11,11,12,12,13,13,14,14],"right_children":[2,4,6,8,10,12,14,-1,16,18,20,22,24,26,28,-1,-1,-1,-1,-1,-1,-1,-1,-1,-1,-1,-1,-1,-1],"split_conditions":[-9.0453205E0,-1.3520874E2,8.0871E1,-3.53E2,8.574595E-2,5E0,8.602902E-1,2.2813529E-2,1.4E1,-3.653701E-1,-3.4512308E0,-1.019656E-1,3E0,3.0989566E-1,-4E-1,-4.3808073E-2,1.753011E-2,-2.7267065E-2,-9.8478235E-3,-9.45631E-3,4.988686E-2,4.386161E-2,8.120469E-3,2.5049457E-2,-2.1562321E-2,1.4343399E-2,3.984278E-2,-8.552324E-3,5.38553E-2],"split_indices":[0,0,0,21,7,2,9,0,22,6,18,7,19,6,11,0,0,0,0,0,0,0,0,0,0,0,0,0,0],"split_type":[0,0,0,0,0,0,0,0,0,0,0,0,0,0,0,0,0,0,0,0,0,0,0,0,0,0,0,0,0],"sum_hessian":[7.190848E2,3.3331357E2,3.857712E2,8.2126816E1,2.5118674E2,2.3537018E2,1.5040105E2,1.4696144E0,8.0657196E1,2.4124936E2,9.937378E0,2.1168948E2,2.3680689E1,1.0908853E2,4.131251E1,7.897536E1,1.681843E0,9.7074585E1,1.4417477E2,4.9667506E0,4.970627E0,9.236089E0,2.024534E2,4.9909134E0,1.8689775E1,5.1465065E1,5.7623463E1,2.4438064E0,3.8868706E1],"tree_param":{"num_deleted":"0","num_feature":"24","num_nodes":"29","size_leaf_vector":"1"}},{"base_weights":[2.2884922E-2,-3.652532E-1,5.701205E-1,-6.3134915E-1,-5.0506525E-2,2.5723574E-1,8.6498487E-1,-1.0153615E0,-4.7302684E-1,-6.3130546E-1,4.5807205E-2,1.5090859E-1,5.9447336E-1,7.874432E-1,1.4761113E0,-4.4233143E-2,-6.6763153E-3,-2.0477157E-2,3.257847E-2,9.29859E-3,-3.7208263E-2,1.7739283E-2,-2.9259303E-3,9.944125E-3,-1.595714E-2,1.2455876E-2,4.9909327E-2,6.668183E-3,3.3277996E-2,6.1214957E-2,1.710471E-2],"categories":[],"categories_nodes":[],"categories_segments":[],"categories_sizes":[],"default_left":[0,0,0,0,0,0,0,0,0,0,0,0,0,0,0,0,0,0,0,0,0,0,0,0,0,0,0,0,0,0,0],"id":10,"left_children":[1,3,5,7,9,11,13,15,17,19,21,23,25,27,29,-1,-1,-1,-1,-1,-1,-1,-1,-1,-1,-1,-1,-1,-1,-1,-1],"loss_changes":[1.5369743E2,3.5427513E1,2.7478172E1,1.3462761E1,1.0939625E1,5.184825E0,6.1426163E0,4.8872986E0,8.6439705E0,7.396655E0,7.9909134E0,6.1785765E0,6.069046E0,3.6997986E0,2.6805115E-1,0E0,0E0,0E0,0E0,0E0,0E0,0E0,0E0,0E0,0E0,0E0,0E0,0E0,0E0,0E0,0E0],"parents":[2147483647,0,0,1,1,2,2,3,3,4,4,5,5,6,6,7,7,8,8,9,9,10,10,11,11,12,12,13,13,14,14],"right_children":[2,4,6,8,10,12,14,16,18,20,22,24,26,28,30,-1,-1,-1,-1,-1,-1,-1,-1,-1,-1,-1,-1,-1,-1,-1,-1],"split_conditions":[1.5263693E1,-4.412999E1,7.7123375E1,-7.822342E-1,-5.855661E-2,7.4009967E0,2.4531944E2,5.3361524E-2,2.7478177E-2,-1.2163297E1,-2.7720606E-1,3.7680736E0,3.8422327E-3,-3.3333334E-1,9.587194E-3,-4.4233143E-2,-6.6763153E-3,-2.0477157E-2,3.257847E-2,9.29859E-3,-3.7208263E-2,1.7739283E-2,-2.9259303E-3,9.944125E-3,-1.595714E-2,1.2455876E-2,4.9909327E-2,6.668183E-3,3.3277996E-2,6.1214957E-2,1.710471E-2],"split_indices":[0,0,0,9,8,17,0,8,15,1,14,17,15,11,15,0,0,0,0,0,0,0,0,0,0,0,0,0,0,0,0],"split_type":[0,0,0,0,0,0,0,0,0,0,0,0,0,0,0,0,0,0,0,0,0,0,0,0,0,0,0,0,0,0,0],"sum_hessian":[7.21632E2,4.2238168E2,2.9925037E2,2.2833488E2,1.940468E2,1.4609708E2,1.5315329E2,6.5076904E1,1.6325797E2,2.6811459E1,1.6723534E2,1.12176575E2,3.39205E1,1.3793959E2,1.5213699E1,5.8532486E1,6.544418E0,1.5905444E2,4.2035275E0,6.949867E0,1.9861591E1,3.7878204E1,1.2935713E2,9.571745E1,1.6459127E1,2.4695782E1,9.22472E0,9.546021E0,1.2839357E2,1.402811E1,1.1855896E0],"tree_param":{"num_deleted":"0","num_feature":"24","num_nodes":"31","size_leaf_vector":"1"}},{"base_weights":[-2.3989653E-2,-4.480187E-1,4.6559593E-1,-7.370279E-1,-1.472499E-1,1.8986054E-1,7.715443E-1,-1.188506E0,-5.3989863E-1,-2.0146082E-1,7.955777E-1,1.2544978E-1,8.382706E-1,3.321363E-1,8.9107245E-1,-5.018782E-2,-1.5010442E-2,-2.5084354E-2,4.5881877E-3,-2.0907138E-2,-1.0190038E-3,-5.1798294E-3,5.5343565E-2,-2.8175525E-2,7.51514E-3,1.784118E-2,6.1507944E-2,-3.4420603E-4,3.2737326E-2,-1.416977E-2,3.7290346E-2],"categories":[],"categories_nodes":[],"categories_segments":[],"categories_sizes":[],"default_left":[0,0,0,0,0,0,0,0,0,0,0,0,0,0,0,0,0,0,0,0,0,0,0,0,0,0,0,0,0,0,0],"id":11,"left_children":[1,3,5,7,9,11,13,15,17,19,21,23,25,27,29,-1,-1,-1,-1,-1,-1,-1,-1,-1,-1,-1,-1,-1,-1,-1,-1],"loss_changes":[1.4837096E2,3.3180573E1,2.7838776E1,1.6717697E1,9.815943E0,7.2373915E0,7.9459915E0,2.6753464E0,7.9273453E0,1.0130371E1,5.876353E0,8.47814E0,3.6241198E0,5.8318686E0,6.627228E0,0E0,0E0,0E0,0E0,0E0,0E0,0E0,0E0,0E0,0E0,0E0,0E0,0E0,0E0,0E0,0E0],"parents":[2147483647,0,0,1,1,2,2,3,3,4,4,5,5,6,6,7,7,8,8,9,9,10,10,11,11,12,12,13,13,14,14],"right_children":[2,4,6,8,10,12,14,16,18,20,22,24,26,28,30,-1,-1,-1,-1,-1,-1,-1,-1,-1,-1,-1,-1,-1,-1,-1,-1],"split_conditions":[4.5045046E-3,-5.6140354E1,7.32089E1,-7.822342E-1,8.574595E-2,1.7305948E0,8.5701026E-2,5.4337688E-2,3.2544568E-1,-3.3050725E-1,-2.375E-1,-8.79667E-1,2.8571429E-2,3.1666666E-1,-1.4762338E0,-5.018782E-2,-1.5010442E-2,-2.5084354E-2,4.5881877E-3,-2.0907138E-2,-1.0190038E-3,-5.1798294E-3,5.5343565E-2,-2.8175525E-2,7.51514E-3,1.784118E-2,6.1507944E-2,-3.4420603E-4,3.2737326E-2,-1.416977E-2,3.7290346E-2],"split_indices":[3,0,0,9,7,6,9,8,9,6,12,9,12,3,6,0,0,0,0,0,0,0,0,0,0,0,0,0,0,0,0],"split_type":[0,0,0,0,0,0,0,0,0,0,0,0,0,0,0,0,0,0,0,0,0,0,0,0,0,0,0,0,0,0,0],"sum_hessian":[7.126967E2,3.8196368E2,3.3073303E2,1.9405013E2,1.8791356E2,1.7480812E2,1.5592493E2,5.7448597E1,1.3660153E2,1.784399E2,9.473655E0,1.6009802E2,1.4710098E1,3.4152523E1,1.217724E2,5.262283E1,4.8257656E0,1.2057923E2,1.6022295E1,6.2461735E1,1.15978165E2,3.9846628E0,5.4889917E0,1.0482021E1,1.49616E2,1.0473972E1,4.236125E0,2.0659208E1,1.3493316E1,3.6550927E0,1.1811731E2],"tree_param":{"num_deleted":"0","num_feature":"24","num_nodes":"31","size_leaf_vector":"1"}},{"base_weights":[1.7197442E-3,-4.0653965E-1,4.872286E-1,-9.162141E-1,-2.4068157E-1,2.21286E-1,7.97094E-1,-1.0183192E0,-1.7414066E-1,-4.8304158E-1,-1.0422575E-1,-2.5862763E-3,3.92962E-1,7.045434E-1,1.4372549E0,-8.835695E-3,-4.3683317E-2,-2.7863162E-2,2.6685795E-2,-2.9176127E-2,-5.085173E-3,-1.2884996E-2,5.3715482E-3,-1.2920358E-2,1.5120859E-2,1.7837035E-2,-3.633683E-2,-7.2598215E-3,3.0747032E-2,5.9471793E-2,1.5496233E-2],"categories":[],"categories_nodes":[],"categories_segments":[],"categories_sizes":[],"default_left":[0,0,0,0,0,0,0,0,0,0,0,0,0,0,0,0,0,0,0,0,0,0,0,0,0,0,0,0,0,0,0],"id":12,"left_children":[1,3,5,7,9,11,13,15,17,19,21,23,25,27,29,-1,-1,-1,-1,-1,-1,-1,-1,-1,-1,-1,-1,-1,-1,-1,-1],"loss_changes":[1.4107385E2,3.246216E1,2.661428E1,6.98806E0,9.641407E0,6.77822E0,7.8607483E0,4.636429E0,6.022232E0,9.139273E0,9.853867E0,9.576913E0,7.2845507E0,7.6864014E0,3.5789108E-1,0E0,0E0,0E0,0E0,0E0,0E0,0E0,0E0,0E0,0E0,0E0,0E0,0E0,0E0,0E0,0E0],"parents":[2147483647,0,0,1,1,2,2,3,3,4,4,5,5,6,6,7,7,8,8,9,9,10,10,11,11,12,12,13,13,14,14],"right_children":[2,4,6,8,10,12,14,16,18,20,22,24,26,28,30,-1,-1,-1,-1,-1,-1,-1,-1,-1,-1,-1,-1,-1,-1,-1,-1],"split_conditions":[4.5045046E-3,-1.2388594E2,7.894275E1,3.3928612E-1,-3.9088628E-1,-5E0,2.4531944E2,-5.106044E-1,-1.4990623E-1,0E0,-3.1804272E1,1.0010622E0,9.8169334E-2,-3.3333334E-1,1.9446054E1,-8.835695E-3,-4.3683317E-2,-2.7863162E-2,2.6685795E-2,-2.9176127E-2,-5.085173E-3,-1.2884996E-2,5.3715482E-3,-1.2920358E-2,1.5120859E-2,1.7837035E-2,-3.633683E-2,-7.2598215E-3,3.0747032E-2,5.9471793E-2,1.5496233E-2],"split_indices":[3,0,0,5,9,21,0,14,9,8,0,17,8,11,17,0,0,0,0,0,0,0,0,0,0,0,0,0,0,0,0],"split_type":[0,0,0,0,0,0,0,0,0,0,0,0,0,0,0,0,0,0,0,0,0,0,0,0,0,0,0,0,0,0,0],"sum_hessian":[7.0972736E2,3.8562332E2,3.2410403E2,9.356823E1,2.9205508E2,1.7533583E2,1.4876819E2,8.192372E1,1.1644508E1,1.0428823E2,1.8776686E2,7.65268E1,9.880903E1,1.3181216E2,1.695603E1,7.274706E0,7.464902E1,7.2896447E0,4.3548636E0,6.100874E1,4.327949E1,9.794077E1,8.982609E1,4.1630566E1,3.4896236E1,9.5576584E1,3.2324455E0,8.773222E0,1.2303894E2,1.5794525E1,1.1615049E0],"tree_param":{"num_deleted":"0","num_feature":"24","num_nodes":"31","size_leaf_vector":"1"}},{"base_weights":[-1.5963435E-2,-5.1932764E-1,2.3665676E-1,-7.2871935E-1,-1.5028073E-1,5.954065E-2,6.57725E-1,-7.793245E-1,5.097093E-1,-3.905476E-1,5.892647E-1,-2.3490144E-1,2.4678686E-1,4.9190828E-1,9.474986E-1,-4.3840602E-2,-2.3545079E-2,5.834555E-2,-1.6282383E-2,1.6854834E-3,-2.4147963E-2,4.3911E-2,6.7947116E-3,-1.6747145E-2,1.1347469E-2,-1.02972025E-2,1.7625201E-2,1.0727662E-2,3.452832E-2,-3.8356741E-3,4.1711073E-2],"categories":[],"categories_nodes":[],"categories_segments":[],"categories_sizes":[],"default_left":[0,0,0,0,0,0,0,0,0,0,0,0,0,0,0,0,0,0,0,0,0,0,0,0,0,0,0,0,0,0,0],"id":13,"left_children":[1,3,5,7,9,11,13,15,17,19,21,23,25,27,29,-1,-1,-1,-1,-1,-1,-1,-1,-1,-1,-1,-1,-1,-1,-1,-1],"loss_changes":[9.203313E1,1.8578896E1,3.5903717E1,1.0050804E1,1.6009783E1,1.8822517E1,6.3857994E0,8.316124E0,6.3804502E0,6.262781E0,4.5427704E0,1.2776765E1,2.0495283E1,7.4753246E0,5.15226E0,0E0,0E0,0E0,0E0,0E0,0E0,0E0,0E0,0E0,0E0,0E0,0E0,0E0,0E0,0E0,0E0],"parents":[2147483647,0,0,1,1,2,2,3,3,4,4,5,5,6,6,7,7,8,8,9,9,10,10,11,11,12,12,13,13,14,14],"right_children":[2,4,6,8,10,12,14,16,18,20,22,24,26,28,30,-1,-1,-1,-1,-1,-1,-1,-1,-1,-1,-1,-1,-1,-1,-1,-1],"split_conditions":[-2.84318E-1,3.330297E-1,3.5E-1,3.448976E-2,-7.068344E-1,-3.745101E-1,5.5997956E-1,-8.0539334E-1,6.196258E-1,-9.9673204E-2,-6.5857977E-1,1.2124374E0,-5.54593E-1,6E0,-1.1638455E0,-4.3840602E-2,-2.3545079E-2,5.834555E-2,-1.6282383E-2,1.6854834E-3,-2.4147963E-2,4.3911E-2,6.7947116E-3,-1.6747145E-2,1.1347469E-2,-1.02972025E-2,1.7625201E-2,1.0727662E-2,3.452832E-2,-3.8356741E-3,4.1711073E-2],"split_indices":[9,6,4,15,5,6,6,9,5,11,9,5,5,2,10,0,0,0,0,0,0,0,0,0,0,0,0,0,0,0,0],"split_type":[0,0,0,0,0,0,0,0,0,0,0,0,0,0,0,0,0,0,0,0,0,0,0,0,0,0,0,0,0,0,0],"sum_hessian":[7.217922E2,2.408417E2,4.8095047E2,1.5303647E2,8.780523E1,3.3934952E2,1.4160095E2,1.473847E2,5.651766E0,6.6630066E1,2.1175169E1,1.3181607E2,2.0753345E2,9.1779625E1,4.9821327E1,5.3609013E1,9.3775696E1,2.4867327E0,3.1650333E0,2.225535E1,4.4374714E1,8.839701E0,1.2335468E1,9.7468025E1,3.4348045E1,5.7538536E1,1.4999492E2,5.8346687E1,3.3432934E1,4.1682653E0,4.565306E1],"tree_param":{"num_deleted":"0","num_feature":"24","num_nodes":"31","size_leaf_vector":"1"}},{"base_weights":[-2.0166162E-2,-2.9802835E-1,6.2036574E-1,-6.9243854E-1,-6.2779605E-2,4.2517146E-1,8.495492E-1,-1.5459862E-1,-7.842529E-1,-1.9286706E-1,3.3124956E-1,8.3434194E-1,2.7361014E-1,4.9217406E-1,1.0171828E0,2.2378325E-2,-2.0732839E-2,-4.7893867E-2,-2.5530946E-2,8.822924E-3,-1.0046167E-2,2.7863916E-2,1.0725451E-3,4.3450646E-2,5.5034193E-3,7.171519E-4,3.3282183E-2,2.956141E-2,-5.311521E-3,-2.3773564E-2,4.3299492E-2],"categories":[],"categories_nodes":[],"categories_segments":[],"categories_sizes":[],"default_left":[0,0,0,0,0,0,0,0,0,0,0,0,0,0,0,0,0,0,0,0,0,0,0,0,0,0,0,0,0,0,0],"id":14,"left_children":[1,3,5,7,9,11,13,15,17,19,21,23,25,27,29,-1,-1,-1,-1,-1,-1,-1,-1,-1,-1,-1,-1,-1,-1,-1,-1],"loss_changes":[1.2740998E2,4.6277515E1,9.328369E0,9.084427E0,1.614935E1,7.1498566E0,5.4076767E0,7.67344E0,8.823425E0,5.7559547E0,8.685488E0,5.409569E0,1.2593565E1,5.2552958E0,7.6098022E0,0E0,0E0,0E0,0E0,0E0,0E0,0E0,0E0,0E0,0E0,0E0,0E0,0E0,0E0,0E0,0E0],"parents":[2147483647,0,0,1,1,2,2,3,3,4,4,5,5,6,6,7,7,8,8,9,9,10,10,11,11,12,12,13,13,14,14],"right_children":[2,4,6,8,10,12,14,16,18,20,22,24,26,28,30,-1,-1,-1,-1,-1,-1,-1,-1,-1,-1,-1,-1,-1,-1,-1,-1],"split_conditions":[1.5476191E-1,-2.0915033E-1,3.412204E-1,-4.756551E-1,2.6818466E-1,-3.522809E-2,7.459954E-2,3E0,-9.281092E-1,-4.7206618E-2,-3.8690478E-2,1.6161616E-1,9.2975205E-1,1E0,-5.222222E-1,2.2378325E-2,-2.0732839E-2,-4.7893867E-2,-2.5530946E-2,8.822924E-3,-1.0046167E-2,2.7863916E-2,1.0725451E-3,4.3450646E-2,5.5034193E-3,7.171519E-4,3.3282183E-2,2.956141E-2,-5.311521E-3,-2.3773564E-2,4.3299492E-2],"split_indices":[3,3,6,14,9,8,9,19,9,7,11,11,9,20,11,0,0,0,0,0,0,0,0,0,0,0,0,0,0,0,0],"split_type":[0,0,0,0,0,0,0,0,0,0,0,0,0,0,0,0,0,0,0,0,0,0,0,0,0,0,0,0,0,0,0],"sum_hessian":[7.138297E2,4.982319E2,2.1559784E2,1.854198E2,3.128121E2,1.1797465E2,9.7623184E1,2.7428717E1,1.5799107E2,2.3555493E2,7.725717E1,3.0669947E1,8.73047E1,3.242752E1,6.519567E1,9.074866E0,1.8353851E1,3.9372395E1,1.1861868E2,2.8761387E1,2.0679353E2,3.4530067E1,4.27271E1,2.2114893E1,8.555053E0,6.059407E1,2.6710629E1,2.3114658E1,9.312862E0,2.223572E0,6.2972095E1],"tree_param":{"num_deleted":"0","num_feature":"24","num_nodes":"31","size_leaf_vector":"1"}},{"base_weights":[9.794773E-3,-4.1807923E-1,3.852462E-1,-6.652809E-1,-1.2202492E-1,1.4193901E-1,7.3797214E-1,4.485621E-1,-7.036038E-1,-4.1747177E-1,7.1193144E-2,-8.712259E-2,2.7326834E-1,-4.683706E-1,7.684019E-1,-1.5469633E-2,4.1088264E-2,-4.184864E-2,-2.3701806E-2,2.967291E-3,-2.5120497E-2,-5.07631E-3,1.87093E-2,-1.4966558E-2,8.378318E-3,3.2580977E-3,2.8441524E-2,-4.741577E-2,2.3685655E-2,2.5323045E-2,4.2242497E-2],"categories":[],"categories_nodes":[],"categories_segments":[],"categories_sizes":[],"default_left":[0,0,0,0,0,0,0,0,0,0,0,0,0,0,0,0,0,0,0,0,0,0,0,0,0,0,0,0,0,0,0],"id":15,"left_children":[1,3,5,7,9,11,13,15,17,19,21,23,25,27,29,-1,-1,-1,-1,-1,-1,-1,-1,-1,-1,-1,-1,-1,-1,-1,-1],"loss_changes":[1.1393201E2,2.4177967E1,3.2312584E1,8.016876E0,8.710095E0,6.785646E0,6.0114365E0,3.592972E0,6.031456E0,6.2852964E0,7.348384E0,7.1160197E0,1.19590225E1,4.0547833E0,5.1919327E0,0E0,0E0,0E0,0E0,0E0,0E0,0E0,0E0,0E0,0E0,0E0,0E0,0E0,0E0,0E0,0E0],"parents":[2147483647,0,0,1,1,2,2,3,3,4,4,5,5,6,6,7,7,8,8,9,9,10,10,11,11,12,12,13,13,14,14],"right_children":[2,4,6,8,10,12,14,16,18,20,22,24,26,28,30,-1,-1,-1,-1,-1,-1,-1,-1,-1,-1,-1,-1,-1,-1,-1,-1],"split_conditions":[-9.0453205E0,-2.0915033E-1,7.32089E1,-3.6079373E-2,-2E0,-2.33829E-1,-1.4762338E0,-1.8030643E0,-1.826686E2,-2.963301E-2,2.978566E-1,9.746564E-1,4.1072045E-2,3.0684092E0,8.0553216E-1,-1.5469633E-2,4.1088264E-2,-4.184864E-2,-2.3701806E-2,2.967291E-3,-2.5120497E-2,-5.07631E-3,1.87093E-2,-1.4966558E-2,8.378318E-3,3.2580977E-3,2.8441524E-2,-4.741577E-2,2.3685655E-2,2.5323045E-2,4.2242497E-2],"split_indices":[0,3,0,15,16,5,6,1,0,7,6,6,6,5,9,0,0,0,0,0,0,0,0,0,0,0,0,0,0,0,0],"split_type":[0,0,0,0,0,0,0,0,0,0,0,0,0,0,0,0,0,0,0,0,0,0,0,0,0,0,0,0,0,0,0],"sum_hessian":[7.072095E2,3.304765E2,3.7673297E2,1.7941776E2,1.5105873E2,2.2377643E2,1.5295654E2,5.611673E0,1.7380608E2,5.92697E1,9.178904E1,8.166857E1,1.4210786E2,3.40927E0,1.4954727E2,2.4322457E0,3.179427E0,4.0486435E1,1.3331964E2,1.7965158E1,4.1304543E1,6.1663498E1,3.012554E1,4.1368782E1,4.029979E1,9.963656E1,4.2471302E1,1.9637803E0,1.4454899E0,1.03879456E2,4.5667824E1],"tree_param":{"num_deleted":"0","num_feature":"24","num_nodes":"31","size_leaf_vector":"1"}},{"base_weights":[-5.5616386E-3,-3.206613E-1,4.8735923E-1,-6.2241554E-1,-1.10355325E-1,1.435907E-1,6.603307E-1,-9.399216E-1,-4.699651E-1,-4.2725146E-1,-1.5165849E-2,-2.1358426E-1,4.1573924E-1,-4.6549994E-1,6.9745654E-1,-3.9981574E-2,2.039153E-3,4.3422906E-3,-2.2075212E-2,-1.7780584E-3,-3.1066643E-2,-1.22786565E-2,5.313652E-3,-4.46671E-2,8.439547E-4,5.9896237E-3,2.9581696E-2,-4.0561963E-2,8.615734E-3,2.4183294E-2,4.227015E-2],"categories":[],"categories_nodes":[],"categories_segments":[],"categories_sizes":[],"default_left":[0,0,0,0,0,0,0,0,0,0,0,0,0,0,0,0,0,0,0,0,0,0,0,0,0,0,0,0,0,0,0],"id":16,"left_children":[1,3,5,7,9,11,13,15,17,19,21,23,25,27,29,-1,-1,-1,-1,-1,-1,-1,-1,-1,-1,-1,-1,-1,-1,-1,-1],"loss_changes":[1.09426796E2,2.720523E1,1.6242165E1,8.091698E0,7.669965E0,9.152663E0,7.9527206E0,3.370346E0,5.7991447E0,7.823203E0,8.537422E0,8.709772E0,4.476701E0,2.618484E0,5.269989E0,0E0,0E0,0E0,0E0,0E0,0E0,0E0,0E0,0E0,0E0,0E0,0E0,0E0,0E0,0E0,0E0],"parents":[2147483647,0,0,1,1,2,2,3,3,4,4,5,5,6,6,7,7,8,8,9,9,10,10,11,11,12,12,13,13,14,14],"right_children":[2,4,6,8,10,12,14,16,18,20,22,24,26,28,30,-1,-1,-1,-1,-1,-1,-1,-1,-1,-1,-1,-1,-1,-1,-1,-1],"split_conditions":[6.8627454E-2,-2.0915033E-1,7.459954E-2,-7.993342E-1,-1.4705883E-1,2E-1,-5.5714285E-1,2.0034624E1,-4.756551E-1,0E0,-2.84318E-1,-1.4169444E-2,2.8571429E-2,3E0,7E0,-3.9981574E-2,2.039153E-3,4.3422906E-3,-2.2075212E-2,-1.7780584E-3,-3.1066643E-2,-1.22786565E-2,5.313652E-3,-4.46671E-2,8.439547E-4,5.9896237E-3,2.9581696E-2,-4.0561963E-2,8.615734E-3,2.4183294E-2,4.227015E-2],"split_indices":[3,3,9,9,12,3,11,1,14,2,9,15,12,2,2,0,0,0,0,0,0,0,0,0,0,0,0,0,0,0,0],"split_type":[0,0,0,0,0,0,0,0,0,0,0,0,0,0,0,0,0,0,0,0,0,0,0,0,0,0,0,0,0,0,0],"sum_hessian":[7.025223E2,4.287764E2,2.7374588E2,1.7529605E2,2.5348036E2,9.224522E1,1.8150066E2,5.5189137E1,1.2010691E2,5.7746742E1,1.9573361E2,3.998415E1,5.2261066E1,5.4258175E0,1.7607483E2,5.2048885E1,3.1402507E0,1.4856731E1,1.05250175E2,2.8094799E1,2.9651941E1,6.550821E1,1.302254E2,7.472128E0,3.251202E1,2.9494389E1,2.276668E1,2.7339606E0,2.691857E0,1.4204144E2,3.4033394E1],"tree_param":{"num_deleted":"0","num_feature":"24","num_nodes":"31","size_leaf_vector":"1"}},{"base_weights":[1.7587658E-2,-3.3189073E-1,4.293129E-1,-5.857782E-1,-1.0757044E-1,1.5682426E-1,6.1486757E-1,4.5876646E-1,-6.3177085E-1,-4.9165255E-1,7.874718E-3,-1.7263073E-1,4.350012E-1,-7.335429E-2,6.830689E-1,-1.8237965E-2,4.212693E-2,-2.6518637E-2,4.7242045E-2,4.9590645E-3,-3.4103803E-2,-1.2202987E-2,6.4780605E-3,-4.17537E-2,1.4609829E-4,2.0033248E-2,-2.3866316E-2,-3.0666158E-2,1.7116845E-2,3.1549927E-2,1.4678685E-2],"categories":[],"categories_nodes":[],"categories_segments":[],"categories_sizes":[],"default_left":[0,0,0,0,0,0,0,0,0,0,0,0,0,0,0,0,0,0,0,0,0,0,0,0,0,0,0,0,0,0,0],"id":17,"left_children":[1,3,5,7,9,11,13,15,17,19,21,23,25,27,29,-1,-1,-1,-1,-1,-1,-1,-1,-1,-1,-1,-1,-1,-1,-1,-1],"loss_changes":[1.0016949E2,2.1383507E1,1.6062859E1,8.765259E0,8.923037E0,1.2063574E1,8.9581375E0,4.840598E0,1.0362732E1,1.0439153E1,7.554493E0,9.311094E0,5.1349583E0,6.5887365E0,5.48201E0,0E0,0E0,0E0,0E0,0E0,0E0,0E0,0E0,0E0,0E0,0E0,0E0,0E0,0E0,0E0,0E0],"parents":[2147483647,0,0,1,1,2,2,3,3,4,4,5,5,6,6,7,7,8,8,9,9,10,10,11,11,12,12,13,13,14,14],"right_children":[2,4,6,8,10,12,14,16,18,20,22,24,26,28,30,-1,-1,-1,-1,-1,-1,-1,-1,-1,-1,-1,-1,-1,-1,-1,-1],"split_conditions":[4.5045046E-3,-2.0915033E-1,1.8390805E-1,-2.9608784E-2,-1.4705883E-1,-3E0,-8E0,3.412204E-1,1.2827833E-1,-1.3826108E-2,-4.7596735E-1,-1.2994174E-2,3.0555555E-1,1.0931387E-1,2.406168E-2,-1.8237965E-2,4.212693E-2,-2.6518637E-2,4.7242045E-2,4.9590645E-3,-3.4103803E-2,-1.2202987E-2,6.4780605E-3,-4.17537E-2,1.4609829E-4,2.0033248E-2,-2.3866316E-2,-3.0666158E-2,1.7116845E-2,3.1549927E-2,1.4678685E-2],"split_indices":[3,3,3,15,12,21,16,6,7,7,5,15,11,6,7,0,0,0,0,0,0,0,0,0,0,0,0,0,0,0,0],"split_type":[0,0,0,0,0,0,0,0,0,0,0,0,0,0,0,0,0,0,0,0,0,0,0,0,0,0,0,0,0,0,0],"sum_hessian":[6.941675E2,3.7557114E2,3.1859637E2,1.7541911E2,2.0015204E2,1.2981178E2,1.8878458E2,7.019676E0,1.6839943E2,4.5503773E1,1.5464825E2,5.960219E1,7.02096E1,1.7014545E1,1.7177003E2,2.8566277E0,4.1630483E0,1.661742E2,2.2252417E0,1.706092E1,2.8442852E1,5.0696747E1,1.03951515E2,9.202245E0,5.0399944E1,6.648194E1,3.7276614E0,6.9176016E0,1.0096944E1,1.2761162E2,4.4158413E1],"tree_param":{"num_deleted":"0","num_feature":"24","num_nodes":"31","size_leaf_vector":"1"}},{"base_weights":[1.8306263E-2,-3.101333E-1,4.836023E-1,-5.566629E-1,-3.2473166E-2,2.5961423E-1,7.144222E-1,-6.354806E-1,1.2728606E-1,-5.873706E-1,6.073715E-2,4.914058E-1,-2.029825E-2,-1.1173092E-1,7.7071834E-1,-3.9751433E-2,-2.0857038E-2,2.3154331E-2,-2.9160604E-2,2.6197251E-2,-2.9286105E-2,6.517366E-3,-1.3925966E-2,-3.6346144E-5,3.0977126E-2,-3.0419871E-2,6.2363814E-3,2.5955843E-2,-2.5411276E-2,1.2579957E-2,3.6015313E-2],"categories":[],"categories_nodes":[],"categories_segments":[],"categories_sizes":[],"default_left":[0,0,0,0,0,0,0,0,0,0,0,0,0,0,0,0,0,0,0,0,0,0,0,0,0,0,0,0,0,0,0],"id":18,"left_children":[1,3,5,7,9,11,13,15,17,19,21,23,25,27,29,-1,-1,-1,-1,-1,-1,-1,-1,-1,-1,-1,-1,-1,-1,-1,-1],"loss_changes":[1.0794017E2,2.83265E1,1.4924133E1,1.1901428E1,1.0163275E1,9.735109E0,6.753639E0,7.5236664E0,9.50559E0,5.56147E0,7.1000443E0,1.1430864E1,9.099623E0,4.402084E0,7.663803E0,0E0,0E0,0E0,0E0,0E0,0E0,0E0,0E0,0E0,0E0,0E0,0E0,0E0,0E0,0E0,0E0],"parents":[2147483647,0,0,1,1,2,2,3,3,4,4,5,5,6,6,7,7,8,8,9,9,10,10,11,11,12,12,13,13,14,14],"right_children":[2,4,6,8,10,12,14,16,18,20,22,24,26,28,30,-1,-1,-1,-1,-1,-1,-1,-1,-1,-1,-1,-1,-1,-1,-1,-1],"split_conditions":[1.5263693E1,-4.412999E1,8.0871E1,3.144966E-1,-5.855661E-2,9.251472E-3,-3.3333334E-1,-4.5E-1,1.9789439E-2,-9.632671E-2,6E0,-6.109172E-1,-9.897687E-3,5.532066E-1,8.5701026E-2,-3.9751433E-2,-2.0857038E-2,2.3154331E-2,-2.9160604E-2,2.6197251E-2,-2.9286105E-2,6.517366E-3,-1.3925966E-2,-3.6346144E-5,3.0977126E-2,-3.0419871E-2,6.2363814E-3,2.5955843E-2,-2.5411276E-2,1.2579957E-2,3.6015313E-2],"split_indices":[0,0,0,9,8,11,11,3,8,7,16,10,10,9,9,0,0,0,0,0,0,0,0,0,0,0,0,0,0,0,0],"split_type":[0,0,0,0,0,0,0,0,0,0,0,0,0,0,0,0,0,0,0,0,0,0,0,0,0,0,0,0,0,0,0],"sum_hessian":[7.043334E2,4.13083E2,2.9125037E2,2.1827531E2,1.948077E2,1.4889102E2,1.4235934E2,1.9578418E2,2.2491129E1,2.7254614E1,1.6755309E2,8.103309E1,6.785793E1,9.019039E0,1.3334032E2,4.5411053E1,1.5037314E2,1.4937702E1,7.553427E0,2.4770167E0,2.4777597E1,1.3453015E2,3.3022934E1,2.9943487E1,5.1089603E1,1.2410224E1,5.544771E1,3.5793962E0,5.439643E0,3.026823E1,1.0307208E2],"tree_param":{"num_deleted":"0","num_feature":"24","num_nodes":"31","size_leaf_vector":"1"}},{"base_weights":[8.173239E-3,-3.4388536E-1,4.2378643E-1,-8.031707E-1,-2.0864502E-1,2.9614466E-1,7.924393E-1,-3.0869123E-1,-9.689748E-1,-6.554216E-1,-1.3987811E-1,2.4570441E-1,9.067565E-1,9.414043E-1,2.6991725E-1,-2.0337768E-2,4.1406207E-2,-4.0989604E-2,1.0308936E-2,2.2885904E-2,-2.915637E-2,-1.3269458E-2,1.5499983E-3,-1.6467504E-2,1.2412652E-2,-1.1906168E-2,4.220333E-2,2.7698457E-2,4.8821583E-2,2.008551E-2,-2.5734851E-2],"categories":[],"categories_nodes":[],"categories_segments":[],"categories_sizes":[],"default_left":[0,0,0,0,0,0,0,0,0,0,0,0,0,0,0,0,0,0,0,0,0,0,0,0,0,0,0,0,0,0,0],"id":19,"left_children":[1,3,5,7,9,11,13,15,17,19,21,23,25,27,29,-1,-1,-1,-1,-1,-1,-1,-1,-1,-1,-1,-1,-1,-1,-1,-1],"loss_changes":[1.0170132E2,2.320678E1,1.4764244E1,6.69038E0,8.881497E0,7.118778E0,6.080494E0,6.6668406E0,4.5995064E0,3.9069633E0,8.730671E0,9.538205E0,3.496894E0,3.5274887E0,4.4493966E0,0E0,0E0,0E0,0E0,0E0,0E0,0E0,0E0,0E0,0E0,0E0,0E0,0E0,0E0,0E0,0E0],"parents":[2147483647,0,0,1,1,2,2,3,3,4,4,5,5,6,6,7,7,8,8,9,9,10,10,11,11,12,12,13,13,14,14],"right_children":[2,4,6,8,10,12,14,16,18,20,22,24,26,28,30,-1,-1,-1,-1,-1,-1,-1,-1,-1,-1,-1,-1,-1,-1,-1,-1],"split_conditions":[4.5045046E-3,-1.2388594E2,1.2936679E2,3E0,-5.855661E-2,1.7305948E0,2.3791214E-2,4.782564E-1,8.389332E-1,-1.6037296E-1,-4.2604294E1,-8.0967027E-1,-1.1074204E0,6.8642247E-1,1.9056901E-2,-2.0337768E-2,4.1406207E-2,-4.0989604E-2,1.0308936E-2,2.2885904E-2,-2.915637E-2,-1.3269458E-2,1.5499983E-3,-1.6467504E-2,1.2412652E-2,-1.1906168E-2,4.220333E-2,2.7698457E-2,4.8821583E-2,2.008551E-2,-2.5734851E-2],"split_indices":[3,0,0,19,8,6,7,5,6,7,0,5,14,9,8,0,0,0,0,0,0,0,0,0,0,0,0,0,0,0,0],"split_type":[0,0,0,0,0,0,0,0,0,0,0,0,0,0,0,0,0,0,0,0,0,0,0,0,0,0,0,0,0,0,0],"sum_hessian":[6.9306396E2,3.753144E2,3.177496E2,8.425156E1,2.910628E2,2.3736728E2,8.038234E1,2.1875072E1,6.2376488E1,3.7686123E1,2.533767E2,2.2055083E2,1.6816448E1,6.192623E1,1.8456108E1,1.9585484E1,2.2895887E0,5.982165E1,2.5548346E0,1.7453544E0,3.594077E1,1.2175098E2,1.3162572E2,1.9256315E1,2.0129451E2,1.7335225E0,1.5082926E1,3.4573284E1,2.7352947E1,1.5073563E1,3.3825452E0],"tree_param":{"num_deleted":"0","num_feature":"24","num_nodes":"31","size_leaf_vector":"1"}},{"base_weights":[-9.874329E-4,-5.039034E-1,2.6853937E-1,-8.844934E-1,-3.7293166E-1,8.421647E-2,6.408524E-1,-9.899757E-1,1.0634299E-1,-8.836736E-1,-2.877186E-1,-9.6033275E-2,1.959908E-1,-4.552035E-1,6.79322E-1,-4.4353835E-2,-1.47102205E-2,2.8081723E-2,-3.024378E-2,8.709809E-3,-3.9654806E-2,-1.4596408E-2,1.6221728E-2,1.0206537E-2,-1.1435372E-2,3.9826866E-2,5.6813112E-3,-3.913269E-2,3.3848263E-2,2.3234388E-2,4.237758E-2],"categories":[],"categories_nodes":[],"categories_segments":[],"categories_sizes":[],"default_left":[0,0,0,0,0,0,0,0,0,0,0,0,0,0,0,0,0,0,0,0,0,0,0,0,0,0,0,0,0,0,0],"id":20,"left_children":[1,3,5,7,9,11,13,15,17,19,21,23,25,27,29,-1,-1,-1,-1,-1,-1,-1,-1,-1,-1,-1,-1,-1,-1,-1,-1],"loss_changes":[9.380582E1,1.1706692E1,3.0866867E1,6.4905014E0,7.6396904E0,6.113818E0,6.593899E0,3.6833076E0,4.014632E0,3.2349281E0,8.54577E0,7.838162E0,7.929995E0,4.676183E0,4.7890015E0,0E0,0E0,0E0,0E0,0E0,0E0,0E0,0E0,0E0,0E0,0E0,0E0,0E0,0E0,0E0,0E0],"parents":[2147483647,0,0,1,1,2,2,3,3,4,4,5,5,6,6,7,7,8,8,9,9,10,10,11,11,12,12,13,13,14,14],"right_children":[2,4,6,8,10,12,14,16,18,20,22,24,26,28,30,-1,-1,-1,-1,-1,-1,-1,-1,-1,-1,-1,-1,-1,-1,-1,-1],"split_conditions":[-3.1804272E1,-7.993342E-1,7.32089E1,5.4337688E-2,-4.9134198E-1,-2.33829E-1,-2E0,-1.6666667E-1,7.972926E-2,-2.2031823E-2,4.6030316E-1,-8.3333336E-2,-1.4959429E-1,1.9792553E-2,2.0721611E2,-4.4353835E-2,-1.47102205E-2,2.8081723E-2,-3.024378E-2,8.709809E-3,-3.9654806E-2,-1.4596408E-2,1.6221728E-2,1.0206537E-2,-1.1435372E-2,3.9826866E-2,5.6813112E-3,-3.913269E-2,3.3848263E-2,2.3234388E-2,4.237758E-2],"split_indices":[0,9,0,8,3,5,2,4,14,15,9,11,5,7,0,0,0,0,0,0,0,0,0,0,0,0,0,0,0,0,0],"split_type":[0,0,0,0,0,0,0,0,0,0,0,0,0,0,0,0,0,0,0,0,0,0,0,0,0,0,0,0,0,0,0],"sum_hessian":[6.900436E2,2.4047203E2,4.4957156E2,6.0093464E1,1.8037857E2,3.0152182E2,1.4804976E2,5.431236E1,5.7811065E0,2.4451757E1,1.559268E2,1.1546356E2,1.8605826E2,4.6527705E0,1.4339699E2,4.494407E1,9.368288E0,3.5293221E0,2.2517843E0,2.0869155E0,2.2364843E1,1.407307E2,1.5196108E1,4.039489E1,7.506867E1,1.0657457E1,1.754008E2,3.4958465E0,1.156924E0,1.1590267E2,2.7494312E1],"tree_param":{"num_deleted":"0","num_feature":"24","num_nodes":"31","size_leaf_vector":"1"}},{"base_weights":[-2.7345013E-2,-3.6116222E-1,3.562605E-1,-8.2276464E-1,-2.2770254E-1,1.5632135E-1,6.173864E-1,2.1747937E-2,-8.5710996E-1,-3.3961508E-1,1.3598253E-2,-3.5248224E-2,3.849752E-1,4.328428E-1,8.525593E-1,-3.9447125E-2,-1.7370725E-2,-3.0024389E-2,-7.424321E-3,-9.582818E-3,4.0001445E-2,-1.8870998E-2,4.7461325E-3,4.2237915E-2,5.6526046E-3,2.0395597E-2,-1.0716163E-2,3.7074648E-2,-3.7211673E-3],"categories":[],"categories_nodes":[],"categories_segments":[],"categories_sizes":[],"default_left":[0,0,0,0,0,0,0,0,0,0,0,0,0,0,0,0,0,0,0,0,0,0,0,0,0,0,0,0,0],"id":21,"left_children":[1,3,5,7,9,11,13,-1,15,17,19,21,23,25,27,-1,-1,-1,-1,-1,-1,-1,-1,-1,-1,-1,-1,-1,-1],"loss_changes":[8.767962E1,2.2364628E1,1.6538967E1,4.301239E0,7.7104473E0,7.976833E0,5.6129265E0,0E0,3.9434395E0,1.2202126E1,2.305862E1,6.763184E0,1.3413938E1,4.4159794E0,4.272011E0,0E0,0E0,0E0,0E0,0E0,0E0,0E0,0E0,0E0,0E0,0E0,0E0,0E0,0E0],"parents":[2147483647,0,0,1,1,2,2,3,3,4,4,5,5,6,6,8,8,9,9,10,10,11,11,12,12,13,13,14,14],"right_children":[2,4,6,8,10,12,14,-1,16,18,20,22,24,26,28,-1,-1,-1,-1,-1,-1,-1,-1,-1,-1,-1,-1,-1,-1],"split_conditions":[4.5045046E-3,-1.2388594E2,8.0871E1,-3.41E2,3.1454477E-1,1.0010622E0,3.75E-1,2.1747937E-2,2.5005713E-1,-2.0413662E-1,-4.4252554E-1,-2.8139705E-2,3.7680736E0,9E0,2.1436227E-2,-3.9447125E-2,-1.7370725E-2,-3.0024389E-2,-7.424321E-3,-9.582818E-3,4.0001445E-2,-1.8870998E-2,4.7461325E-3,4.2237915E-2,5.6526046E-3,2.0395597E-2,-1.0716163E-2,3.7074648E-2,-3.7211673E-3],"split_indices":[3,0,0,21,6,17,3,0,14,5,5,7,17,22,15,0,0,0,0,0,0,0,0,0,0,0,0,0,0],"split_type":[0,0,0,0,0,0,0,0,0,0,0,0,0,0,0,0,0,0,0,0,0,0,0,0,0,0,0,0,0],"sum_hessian":[6.827027E2,3.6507202E2,3.1763068E2,8.071946E1,2.8435257E2,1.807967E2,1.3683398E2,1.615485E0,7.910397E1,1.9397961E2,9.0372955E1,9.883616E1,8.196055E1,7.826155E1,5.857243E1,5.9584232E1,1.9519745E1,5.1818653E1,1.4216096E2,7.251831E1,1.7854645E1,2.5224339E1,7.361182E1,2.0946358E1,6.101419E1,7.0754456E1,7.507095E0,5.4323353E1,4.249078E0],"tree_param":{"num_deleted":"0","num_feature":"24","num_nodes":"29","size_leaf_vector":"1"}},{"base_weights":[-1.7363653E-2,-5.163436E-1,2.084393E-1,-5.980794E-1,7.297227E-2,3.6475938E-2,5.4195267E-1,-1.1497567E-1,-6.6435164E-1,4.2547837E-1,-6.090843E-1,-1.3602795E-1,1.6306475E-1,3.156868E-1,7.7316123E-1,-2.0591449E-2,1.4072798E-2,-4.509325E-2,-2.308426E-2,-1.4943686E-2,4.012669E-2,1.0688588E-2,-4.9574357E-2,-2.3858756E-2,7.6170993E-4,-7.061499E-4,1.7402843E-2,4.1386746E-3,3.154187E-2,1.2969543E-2,3.660122E-2],"categories":[],"categories_nodes":[],"categories_segments":[],"categories_sizes":[],"default_left":[0,0,0,0,0,0,0,0,0,0,0,0,0,0,0,0,0,0,0,0,0,0,0,0,0,0,0,0,0,0,0],"id":22,"left_children":[1,3,5,7,9,11,13,15,17,19,21,23,25,27,29,-1,-1,-1,-1,-1,-1,-1,-1,-1,-1,-1,-1,-1,-1,-1,-1],"loss_changes":[7.823774E1,1.0463593E1,2.7400873E1,6.0094147E0,6.8084655E0,6.9342546E0,8.261299E0,4.686262E0,6.092766E0,8.936485E0,5.684581E0,9.615778E0,9.004093E0,8.333686E0,4.7806892E0,0E0,0E0,0E0,0E0,0E0,0E0,0E0,0E0,0E0,0E0,0E0,0E0,0E0,0E0,0E0,0E0],"parents":[2147483647,0,0,1,1,2,2,3,3,4,4,5,5,6,6,7,7,8,8,9,9,10,10,11,11,12,12,13,13,14,14],"right_children":[2,4,6,8,10,12,14,16,18,20,22,24,26,28,30,-1,-1,-1,-1,-1,-1,-1,-1,-1,-1,-1,-1,-1,-1,-1,-1],"split_conditions":[-4.2604294E1,2.5826716E-1,6.4856705E1,-4.6275327E-1,1.9789439E-2,-1.1157201E-1,3.0989566E-1,-6.9044834E-1,-1.2292244E0,2.6204136E-1,9.567911E-2,-2.84318E-1,-2.6034093E-1,8.7787575E-1,7.459954E-2,-2.0591449E-2,1.4072798E-2,-4.509325E-2,-2.308426E-2,-1.4943686E-2,4.012669E-2,1.0688588E-2,-4.9574357E-2,-2.3858756E-2,7.6170993E-4,-7.061499E-4,1.7402843E-2,4.1386746E-3,3.154187E-2,1.2969543E-2,3.660122E-2],"split_indices":[0,9,0,14,8,6,6,9,5,5,5,9,5,9,9,0,0,0,0,0,0,0,0,0,0,0,0,0,0,0,0],"split_type":[0,0,0,0,0,0,0,0,0,0,0,0,0,0,0,0,0,0,0,0,0,0,0,0,0,0,0,0,0,0,0],"sum_hessian":[6.9243494E2,2.1532423E2,4.7711072E2,1.8908414E2,2.6240099E1,3.1552945E2,1.6158128E2,2.3139494E1,1.6594464E2,1.7547327E1,8.692771E0,1.3351398E2,1.8201546E2,8.2858986E1,7.87223E1,1.2408663E1,1.0730831E1,2.4422338E1,1.415223E2,7.5111113E0,1.0036217E1,3.8776019E0,4.8151693E0,3.2920105E1,1.0059388E2,1.09920425E2,7.2095024E1,5.8032684E1,2.4826302E1,1.969286E1,5.9029438E1],"tree_param":{"num_deleted":"0","num_feature":"24","num_nodes":"31","size_leaf_vector":"1"}},{"base_weights":[1.3202327E-2,-2.0779796E-1,3.3032608E-1,-5.005968E-1,-7.8613095E-2,1.5382767E-1,7.269765E-1,8.1992054E-1,-5.4908067E-1,-3.3403814E-1,3.8105745E-2,-5.590946E-1,3.4264505E-1,1.0568556E0,5.4060966E-1,-7.286239E-3,5.706524E-2,-4.541034E-3,-2.681263E-2,-4.313991E-2,-8.036455E-3,-8.37386E-3,1.4901012E-2,3.2345936E-2,-2.8482601E-2,-3.299311E-2,1.548504E-2,4.7942176E-2,3.0183808E-3,2.605663E-2,-3.1923193E-2],"categories":[],"categories_nodes":[],"categories_segments":[],"categories_sizes":[],"default_left":[0,0,0,0,0,0,0,0,0,0,0,0,0,0,0,0,0,0,0,0,0,0,0,0,0,0,0,0,0,0,0],"id":23,"left_children":[1,3,5,7,9,11,13,15,17,19,21,23,25,27,29,-1,-1,-1,-1,-1,-1,-1,-1,-1,-1,-1,-1,-1,-1,-1,-1],"loss_changes":[4.8385292E1,1.5351343E1,1.9736609E1,8.413347E0,8.465058E0,2.6774368E1,4.779686E0,3.181768E0,6.2906456E0,8.606155E0,1.6255299E1,9.306772E0,8.459223E0,4.13348E0,9.0735855E0,0E0,0E0,0E0,0E0,0E0,0E0,0E0,0E0,0E0,0E0,0E0,0E0,0E0,0E0,0E0,0E0],"parents":[2147483647,0,0,1,1,2,2,3,3,4,4,5,5,6,6,7,7,8,8,9,9,10,10,11,11,12,12,13,13,14,14],"right_children":[2,4,6,8,10,12,14,16,18,20,22,24,26,28,30,-1,-1,-1,-1,-1,-1,-1,-1,-1,-1,-1,-1,-1,-1,-1,-1],"split_conditions":[8.5701026E-2,-2E0,4.1891482E-1,-2.3244541E1,-3.5375947E-1,1.052231E-1,-2.882826E-1,-5E0,-2.8385425E-1,-2.4089582E-1,-3.8695803E-1,-9.9365586E-1,-8.181818E-2,1.7851528E1,5.408397E-2,-7.286239E-3,5.706524E-2,-4.541034E-3,-2.681263E-2,-4.313991E-2,-8.036455E-3,-8.37386E-3,1.4901012E-2,3.2345936E-2,-2.8482601E-2,-3.299311E-2,1.548504E-2,4.7942176E-2,3.0183808E-3,2.605663E-2,-3.1923193E-2],"split_indices":[9,2,6,18,6,5,14,2,14,5,5,10,8,17,7,0,0,0,0,0,0,0,0,0,0,0,0,0,0,0,0],"split_type":[0,0,0,0,0,0,0,0,0,0,0,0,0,0,0,0,0,0,0,0,0,0,0,0,0,0,0,0,0,0,0],"sum_hessian":[6.8840625E2,4.0589026E2,2.8251602E2,1.2337791E2,2.8251233E2,1.9647702E2,8.6038994E1,3.805988E0,1.1957192E2,8.802293E1,1.9448943E2,4.0730156E1,1.5574686E2,2.937423E1,5.666476E1,1.6992228E0,2.106765E0,2.6457148E1,9.311477E1,1.2275527E1,7.57474E1,1.1199398E2,8.249544E1,3.665932E0,3.7064224E1,5.072322E0,1.5067455E2,2.547478E1,3.89945E0,5.2807194E1,3.857569E0],"tree_param":{"num_deleted":"0","num_feature":"24","num_nodes":"31","size_leaf_vector":"1"}},{"base_weights":[-8.257588E-3,-2.8337607E-1,3.8334838E-1,-5.33001E-1,-8.2273774E-2,5.992367E-2,5.2235466E-1,-7.606271E-1,-3.4548357E-1,2.1716693E-2,-4.419508E-1,-3.236376E-1,2.716688E-1,3.2332838E-1,7.6102465E-1,-3.253682E-2,8.9620855E-3,-2.4084214E-2,-2.9750508E-3,-2.2132508E-2,3.0757943E-3,9.568636E-3,-2.7672168E-2,1.3434211E-2,-2.5223428E-2,-1.1332943E-2,2.275478E-2,2.238212E-2,-2.053751E-3,2.6959926E-2,5.1827855E-2],"categories":[],"categories_nodes":[],"categories_segments":[],"categories_sizes":[],"default_left":[0,0,0,0,0,0,0,0,0,0,0,0,0,0,0,0,0,0,0,0,0,0,0,0,0,0,0,0,0,0,0],"id":24,"left_children":[1,3,5,7,9,11,13,15,17,19,21,23,25,27,29,-1,-1,-1,-1,-1,-1,-1,-1,-1,-1,-1,-1,-1,-1,-1,-1],"loss_changes":[7.312357E1,1.9967548E1,1.2560364E1,7.321129E0,8.311408E0,7.017382E0,9.052647E0,4.31102E0,6.8604813E0,5.5357738E0,8.645585E0,6.447429E0,9.318235E0,9.630099E0,3.23415E0,0E0,0E0,0E0,0E0,0E0,0E0,0E0,0E0,0E0,0E0,0E0,0E0,0E0,0E0,0E0,0E0],"parents":[2147483647,0,0,1,1,2,2,3,3,4,4,5,5,6,6,7,7,8,8,9,9,10,10,11,11,12,12,13,13,14,14],"right_children":[2,4,6,8,10,12,14,16,18,20,22,24,26,28,30,-1,-1,-1,-1,-1,-1,-1,-1,-1,-1,-1,-1,-1,-1,-1,-1],"split_conditions":[1.5263693E1,-5.6140354E1,1.5476191E-1,-4.9956426E-1,9.511061E0,-1.0965775E-1,3.412204E-1,6.449271E-2,-3.909729E-1,-4.6666667E-1,-2E-1,2.9605264E-2,-5.8957105E0,4.8387095E-2,6.324526E-1,-3.253682E-2,8.9620855E-3,-2.4084214E-2,-2.9750508E-3,-2.2132508E-2,3.0757943E-3,9.568636E-3,-2.7672168E-2,1.3434211E-2,-2.5223428E-2,-1.1332943E-2,2.275478E-2,2.238212E-2,-2.053751E-3,2.6959926E-2,5.1827855E-2],"split_indices":[0,0,3,9,18,9,6,8,6,4,4,3,18,11,5,0,0,0,0,0,0,0,0,0,0,0,0,0,0,0,0],"split_type":[0,0,0,0,0,0,0,0,0,0,0,0,0,0,0,0,0,0,0,0,0,0,0,0,0,0,0,0,0,0,0],"sum_hessian":[6.7670807E2,3.9763226E2,2.790758E2,1.7667639E2,2.2095586E2,8.432008E1,1.9475572E2,7.842298E1,9.825342E1,1.7212918E2,4.882668E1,2.9803934E1,5.4516148E1,1.0748172E2,8.7274E1,7.4597374E1,3.825603E0,4.984796E1,4.8405457E1,1.4280435E1,1.5784875E2,1.3114808E1,3.571187E1,9.436018E0,2.0367916E1,1.9028685E1,3.548746E1,6.561751E1,4.1864212E1,7.7001366E1,1.0272636E1],"tree_param":{"num_deleted":"0","num_feature":"24","num_nodes":"31","size_leaf_vector":"1"}},{"base_weights":[-2.3735851E-2,-2.47208E-1,3.7776574E-1,-6.86984E-1,-1.2874375E-1,3.0594835E-1,7.5893384E-1,-7.466294E-1,3.962192E-1,-2.8892243E-1,1.2465367E-4,1.1342991E-1,5.1942515E-1,8.469816E-1,-2.053226E-2,-3.7963524E-2,-1.4110325E-2,5.0501354E-2,-3.7349734E-2,-4.524049E-3,-2.0923652E-2,2.3869483E-3,-2.200968E-2,3.822605E-2,3.1668934E-4,1.724583E-2,4.990014E-2,-5.9524267E-3,3.8944438E-2],"categories":[],"categories_nodes":[],"categories_segments":[],"categories_sizes":[],"default_left":[0,0,0,0,0,0,0,0,0,0,0,0,0,0,0,0,0,0,0,0,0,0,0,0,0,0,0,0,0],"id":25,"left_children":[1,3,5,7,9,11,13,15,17,19,21,23,25,27,-1,-1,-1,-1,-1,-1,-1,-1,-1,-1,-1,-1,-1,-1,-1],"loss_changes":[6.092486E1,2.263448E1,6.4149246E0,6.260891E0,7.1180625E0,8.407293E0,4.6715107E0,6.670994E0,7.4833727E0,6.27061E0,6.3284383E0,9.731703E0,5.722677E0,4.653002E0,0E0,0E0,0E0,0E0,0E0,0E0,0E0,0E0,0E0,0E0,0E0,0E0,0E0,0E0,0E0],"parents":[2147483647,0,0,1,1,2,2,3,3,4,4,5,5,6,6,7,7,8,8,9,9,10,10,11,11,12,12,13,13],"right_children":[2,4,6,8,10,12,14,16,18,20,22,24,26,28,-1,-1,-1,-1,-1,-1,-1,-1,-1,-1,-1,-1,-1,-1,-1],"split_conditions":[2.9135872E1,-1.144322E2,1.014997E0,8.389332E-1,-4.9494687E-3,3.412204E-1,1E0,-3.446955E-1,-4.5107366E-4,-2.692039E-2,1.0106368E0,-5.1411003E-2,2.1568628E-1,-7.979653E-1,-2.053226E-2,-3.7963524E-2,-1.4110325E-2,5.0501354E-2,-3.7349734E-2,-4.524049E-3,-2.0923652E-2,2.3869483E-3,-2.200968E-2,3.822605E-2,3.1668934E-4,1.724583E-2,4.990014E-2,-5.9524267E-3,3.8944438E-2],"split_indices":[0,0,9,6,8,6,23,9,15,8,10,8,11,10,0,0,0,0,0,0,0,0,0,0,0,0,0,0,0],"split_type":[0,0,0,0,0,0,0,0,0,0,0,0,0,0,0,0,0,0,0,0,0,0,0,0,0,0,0,0,0],"sum_hessian":[6.7698114E2,4.3515958E2,2.4182158E2,9.1326866E1,3.4383273E2,2.0499948E2,3.6822098E1,8.6855E1,4.4718585E0,1.5274025E2,1.9109248E2,1.085962E2,9.640329E1,3.4751328E1,2.0707695E0,5.6435993E1,3.0419014E1,2.7386494E0,1.7332091E0,8.808575E1,6.4654495E1,1.7323972E2,1.7852768E1,1.1193157E1,9.740304E1,8.7398415E1,9.004877E0,3.9008143E0,3.0850515E1],"tree_param":{"num_deleted":"0","num_feature":"24","num_nodes":"29","size_leaf_vector":"1"}},{"base_weights":[-4.4078277E-3,-1.6223875E-1,5.315857E-1,-4.3673873E-1,1.49543965E-2,3.6870718E-1,7.965883E-1,-8.6945593E-1,-3.4296665E-1,-6.752097E-1,4.6659913E-2,4.3325543E-1,-1.1263382E0,-1.985848E-2,8.540251E-1,-1.2123195E-2,-4.336885E-2,-1.5918694E-2,1.4075864E-2,-3.7165847E-2,1.5489904E-2,-1.3578312E-3,1.4083164E-2,1.9694384E-2,-1.6355066E-2,-3.278269E-4,-6.442938E-2,4.0679388E-2,1.4862018E-2],"categories":[],"categories_nodes":[],"categories_segments":[],"categories_sizes":[],"default_left":[0,0,0,0,0,0,0,0,0,0,0,0,0,0,0,0,0,0,0,0,0,0,0,0,0,0,0,0,0],"id":26,"left_children":[1,3,5,7,9,11,13,15,17,19,21,23,25,-1,27,-1,-1,-1,-1,-1,-1,-1,-1,-1,-1,-1,-1,-1,-1],"loss_changes":[5.789036E1,2.5718548E1,6.425476E0,8.117649E0,7.0823016E0,9.9716215E0,4.7609673E0,4.085531E0,6.717972E0,4.1954937E0,7.6191235E0,4.9262276E0,2.3402233E0,0E0,4.047077E0,0E0,0E0,0E0,0E0,0E0,0E0,0E0,0E0,0E0,0E0,0E0,0E0,0E0,0E0],"parents":[2147483647,0,0,1,1,2,2,3,3,4,4,5,5,6,6,7,7,8,8,9,9,10,10,11,11,12,12,14,14],"right_children":[2,4,6,8,10,12,14,16,18,20,22,24,26,-1,28,-1,-1,-1,-1,-1,-1,-1,-1,-1,-1,-1,-1,-1,-1],"split_conditions":[6.4856705E1,-4.412999E1,6.426142E-1,-1.826686E2,-3.17309E0,2.1830675E1,-4.882353E-1,-6.25E-2,4.7845343E-1,4.8421052E-1,7.3E1,1.9323671E-2,-5.976691E-3,-1.985848E-2,2.0097533E-2,-1.2123195E-2,-4.336885E-2,-1.5918694E-2,1.4075864E-2,-3.7165847E-2,1.5489904E-2,-1.3578312E-3,1.4083164E-2,1.9694384E-2,-1.6355066E-2,-3.278269E-4,-6.442938E-2,4.0679388E-2,1.4862018E-2],"split_indices":[0,0,9,0,5,18,11,11,9,3,21,15,15,0,7,0,0,0,0,0,0,0,0,0,0,0,0,0,0],"split_type":[0,0,0,0,0,0,0,0,0,0,0,0,0,0,0,0,0,0,0,0,0,0,0,0,0,0,0,0,0],"sum_hessian":[6.822933E2,5.2762415E2,1.5466913E2,2.0640527E2,3.212189E2,9.727335E1,5.7395775E1,3.528916E1,1.711161E2,1.3216939E1,3.0800195E2,9.392823E1,3.3451242E0,2.115982E0,5.5279793E1,1.0365257E1,2.4923904E1,1.5896109E2,1.2155022E1,1.076862E1,2.4483194E0,2.4439145E2,6.3610504E1,8.81564E1,5.771827E0,1.3185066E0,2.0266175E0,4.049458E1,1.4785213E1],"tree_param":{"num_deleted":"0","num_feature":"24","num_nodes":"29","size_leaf_vector":"1"}},{"base_weights":[-1.6354939E-2,-2.6193252E-1,2.815862E-1,-5.1079834E-1,-9.104486E-2,1.1005458E-1,5.067593E-1,-6.562262E-1,-2.1671025E-1,-3.7330133E-1,1.292175E-1,-2.0937797E-1,2.8402248E-1,3.4595937E-1,1.1017107E0,-2.8384201E-2,1.2166675E-2,-1.6143624E-2,3.1135017E-2,-2.0316035E-2,6.2715784E-3,-7.4555674E-3,1.475086E-2,3.1373575E-2,-1.487463E-2,-5.6325863E-3,1.6734885E-2,9.742679E-3,3.3695973E-2,4.604597E-2,6.7444933E-3],"categories":[],"categories_nodes":[],"categories_segments":[],"categories_sizes":[],"default_left":[0,0,0,0,0,0,0,0,0,0,0,0,0,0,0,0,0,0,0,0,0,0,0,0,0,0,0,0,0,0,0],"id":27,"left_children":[1,3,5,7,9,11,13,15,17,19,21,23,25,27,29,-1,-1,-1,-1,-1,-1,-1,-1,-1,-1,-1,-1,-1,-1,-1,-1],"loss_changes":[4.9635666E1,1.5766935E1,1.17841015E1,6.3227997E0,1.3829725E1,9.799505E0,1.227264E1,5.375763E0,9.893048E0,7.0305424E0,9.538442E0,1.0363121E1,6.5597925E0,5.1617804E0,1.0830231E0,0E0,0E0,0E0,0E0,0E0,0E0,0E0,0E0,0E0,0E0,0E0,0E0,0E0,0E0,0E0,0E0],"parents":[2147483647,0,0,1,1,2,2,3,3,4,4,5,5,6,6,7,7,8,8,9,9,10,10,11,11,12,12,13,13,14,14],"right_children":[2,4,6,8,10,12,14,16,18,20,22,24,26,28,30,-1,-1,-1,-1,-1,-1,-1,-1,-1,-1,-1,-1,-1,-1,-1,-1],"split_conditions":[4.5045046E-3,-3.9088628E-1,3.330297E-1,3.1454477E-1,-3.909729E-1,3.6313894E-1,3.0531707E-1,2.4132675E-2,-7.068344E-1,1.1663569E0,-4.570247E-1,-4.519364E-1,-1.1403849E0,2.0636942E0,1.2371248E-1,-2.8384201E-2,1.2166675E-2,-1.6143624E-2,3.1135017E-2,-2.0316035E-2,6.2715784E-3,-7.4555674E-3,1.475086E-2,3.1373575E-2,-1.487463E-2,-5.6325863E-3,1.6734885E-2,9.742679E-3,3.3695973E-2,4.604597E-2,6.7444933E-3],"split_indices":[3,9,6,6,6,5,5,15,5,5,5,14,6,6,13,0,0,0,0,0,0,0,0,0,0,0,0,0,0,0,0],"split_type":[0,0,0,0,0,0,0,0,0,0,0,0,0,0,0,0,0,0,0,0,0,0,0,0,0,0,0,0,0,0,0],"sum_hessian":[6.763745E2,3.7083508E2,3.0553946E2,1.501625E2,2.2067256E2,1.7427191E2,1.3126755E2,9.96525E1,5.0510002E1,9.6419914E1,1.24252655E2,6.1374706E1,1.1289721E2,1.0458298E2,2.6684566E1,9.46528E1,4.999694E0,4.302431E1,7.485691E0,7.69283E1,1.9491615E1,5.3711266E1,7.054139E1,8.0874815E0,5.3287224E1,2.711301E1,8.57842E1,8.793643E1,1.6646547E1,2.5119946E1,1.5646219E0],"tree_param":{"num_deleted":"0","num_feature":"24","num_nodes":"31","size_leaf_vector":"1"}},{"base_weights":[2.7141502E-2,-2.3376559E-1,3.4339488E-1,-6.5433663E-1,-1.4443056E-1,1.4208308E-1,5.865803E-1,3.099086E-1,-7.305383E-1,-4.079087E-1,-5.4852914E-2,7.486007E-2,7.5729966E-1,6.3501453E-1,-1.3567643E-1,-3.708268E-2,5.256049E-2,5.5593657E-3,-3.35387E-2,2.523959E-2,-1.9173184E-2,-3.4930622E-3,3.4400214E-2,-8.605197E-3,8.256412E-3,4.789894E-2,5.391905E-3,2.267143E-2,4.9188342E-2,1.3598448E-2,-3.548517E-2],"categories":[],"categories_nodes":[],"categories_segments":[],"categories_sizes":[],"default_left":[0,0,0,0,0,0,0,0,0,0,0,0,0,0,0,0,0,0,0,0,0,0,0,0,0,0,0,0,0,0,0],"id":28,"left_children":[1,3,5,7,9,11,13,15,17,19,21,23,25,27,29,-1,-1,-1,-1,-1,-1,-1,-1,-1,-1,-1,-1,-1,-1,-1,-1],"loss_changes":[5.4860607E1,1.3595795E1,1.462912E1,4.896267E0,7.1011643E0,6.797635E0,4.8362465E0,7.8717194E0,5.672123E0,5.972989E0,6.801143E0,5.7865095E0,4.281925E0,4.4734993E0,3.6461468E0,0E0,0E0,0E0,0E0,0E0,0E0,0E0,0E0,0E0,0E0,0E0,0E0,0E0,0E0,0E0,0E0],"parents":[2147483647,0,0,1,1,2,2,3,3,4,4,5,5,6,6,7,7,8,8,9,9,10,10,11,11,12,12,13,13,14,14],"right_children":[2,4,6,8,10,12,14,16,18,20,22,24,26,28,30,-1,-1,-1,-1,-1,-1,-1,-1,-1,-1,-1,-1,-1,-1,-1,-1],"split_conditions":[8.928572E-3,-1.437075E2,7.32089E1,-1.84E2,-1.4705883E-1,2.1436227E-2,2.1436227E-2,-4E-1,-4.1860465E-2,-9.632671E-2,8.574595E-2,-2E0,5.438481E-1,2.5114772E2,4.3939394E-1,-3.708268E-2,5.256049E-2,5.5593657E-3,-3.35387E-2,2.523959E-2,-1.9173184E-2,-3.4930622E-3,3.4400214E-2,-8.605197E-3,8.256412E-3,4.789894E-2,5.391905E-3,2.267143E-2,4.9188342E-2,1.3598448E-2,-3.548517E-2],"split_indices":[3,0,0,21,12,15,15,3,7,7,7,16,9,0,3,0,0,0,0,0,0,0,0,0,0,0,0,0,0,0,0],"split_type":[0,0,0,0,0,0,0,0,0,0,0,0,0,0,0,0,0,0,0,0,0,0,0,0,0,0,0,0,0,0,0],"sum_hessian":[6.629015E2,3.633778E2,2.9952365E2,6.255537E1,3.0082245E2,1.647368E2,1.3478685E2,4.356895E0,5.8198475E1,7.542331E1,2.2539914E2,1.4952077E2,1.5216035E1,1.2642933E2,8.357517E0,1.9864587E0,2.3704364E0,6.394445E0,5.180403E1,4.347606E0,7.107571E1,2.185462E2,6.852929E0,4.646273E1,1.0305803E2,8.3723E0,6.8437357E0,1.15169136E2,1.1260195E1,5.453365E0,2.9041526E0],"tree_param":{"num_deleted":"0","num_feature":"24","num_nodes":"31","size_leaf_vector":"1"}},{"base_weights":[-1.0326022E-2,-1.6302574E-1,5.07019E-1,-6.000744E-1,-7.128694E-2,6.468795E-1,2.8142375E-1,-9.806666E-1,-4.240711E-1,-1.01036385E-1,5.744406E-1,-3.5554826E-2,6.764628E-1,-4.487122E-1,4.1764796E-1,-4.3882206E-2,-1.0061444E-3,-6.485765E-4,-2.2538664E-2,-9.390731E-3,1.470934E-3,-1.3501578E-3,4.613345E-2,-2.2562858E-2,2.7921574E-2,-3.5608646E-2,2.8177258E-2,2.1174166E-2,-1.4963663E-2],"categories":[],"categories_nodes":[],"categories_segments":[],"categories_sizes":[],"default_left":[0,0,0,0,0,0,0,0,0,0,0,0,0,0,0,0,0,0,0,0,0,0,0,0,0,0,0,0,0],"id":29,"left_children":[1,3,5,7,9,11,13,15,17,19,21,-1,23,25,27,-1,-1,-1,-1,-1,-1,-1,-1,-1,-1,-1,-1,-1,-1],"loss_changes":[5.2863552E1,2.0670752E1,4.6297913E0,5.578861E0,8.282374E0,4.843399E0,6.1684885E0,3.0348244E0,3.5701265E0,7.5669975E0,6.7303042E0,0E0,2.8609276E0,5.686412E0,4.7259865E0,0E0,0E0,0E0,0E0,0E0,0E0,0E0,0E0,0E0,0E0,0E0,0E0,0E0,0E0],"parents":[2147483647,0,0,1,1,2,2,3,3,4,4,5,5,6,6,7,7,8,8,9,9,10,10,12,12,13,13,14,14],"right_children":[2,4,6,8,10,12,14,16,18,20,22,-1,24,26,28,-1,-1,-1,-1,-1,-1,-1,-1,-1,-1,-1,-1,-1,-1],"split_conditions":[6.4856705E1,-1.144322E2,3.0560362E0,-4.9134198E-1,3.448976E-2,-6E-1,-6E0,2.6363635E-1,-9.386973E-2,-2.3692593E-4,1.0110388E0,-3.5554826E-2,-8.143266E-2,1.281362E-1,1.4778325E-2,-4.3882206E-2,-1.0061444E-3,-6.485765E-4,-2.2538664E-2,-9.390731E-3,1.470934E-3,-1.3501578E-3,4.613345E-2,-2.2562858E-2,2.7921574E-2,-3.5608646E-2,2.8177258E-2,2.1174166E-2,-1.4963663E-2],"split_indices":[0,0,17,3,15,12,22,11,11,8,18,0,7,12,15,0,0,0,0,0,0,0,0,0,0,0,0,0,0],"split_type":[0,0,0,0,0,0,0,0,0,0,0,0,0,0,0,0,0,0,0,0,0,0,0,0,0,0,0,0,0],"sum_hessian":[6.671258E2,5.156201E2,1.515057E2,8.849308E1,4.27127E2,9.237146E1,5.9134247E1,2.6537064E1,6.1956017E1,4.0912183E2,1.8005203E1,1.1967866E0,9.1174675E1,8.937425E0,5.0196823E1,2.3523582E1,3.0134814E0,1.6065718E1,4.5890297E1,2.072758E2,2.0184602E2,9.239631E0,8.765573E0,1.1288505E0,9.004582E1,6.6278358E0,2.309589E0,4.4280685E1,5.9161377E0],"tree_param":{"num_deleted":"0","num_feature":"24","num_nodes":"29","size_leaf_vector":"1"}},{"base_weights":[-1.2533328E-2,-2.8527233E-1,3.1403267E-1,-5.409863E-1,-1.0618793E-1,1.1172937E-1,4.567167E-1,-6.17268E-1,-7.624343E-2,-3.4234342E-1,7.573845E-2,-1.589827E-1,3.3379102E-1,6.4653504E-1,2.4806252E-1,-1.7811928E-2,-3.2706253E-2,2.935534E-2,-1.9962294E-2,6.682488E-3,-2.1822942E-2,2.8940538E-2,1.8957254E-4,9.746828E-3,-1.939295E-2,1.7585348E-2,-2.7906207E-2,-1.0304907E-2,2.8697606E-2,-5.161729E-2,1.2043967E-2],"categories":[],"categories_nodes":[],"categories_segments":[],"categories_sizes":[],"default_left":[0,0,0,0,0,0,0,0,0,0,0,0,0,0,0,0,0,0,0,0,0,0,0,0,0,0,0,0,0,0,0],"id":30,"left_children":[1,3,5,7,9,11,13,15,17,19,21,23,25,27,29,-1,-1,-1,-1,-1,-1,-1,-1,-1,-1,-1,-1,-1,-1,-1,-1],"loss_changes":[5.9561874E1,1.6628727E1,8.734217E0,5.264717E0,9.286099E0,7.6997404E0,6.895508E0,4.066387E0,7.9932942E0,9.819728E0,5.6336026E0,7.727647E0,7.97078E0,6.1254196E0,7.445602E0,0E0,0E0,0E0,0E0,0E0,0E0,0E0,0E0,0E0,0E0,0E0,0E0,0E0,0E0,0E0,0E0],"parents":[2147483647,0,0,1,1,2,2,3,3,4,4,5,5,6,6,7,7,8,8,9,9,10,10,11,11,12,12,13,13,14,14],"right_children":[2,4,6,8,10,12,14,16,18,20,22,24,26,28,30,-1,-1,-1,-1,-1,-1,-1,-1,-1,-1,-1,-1,-1,-1,-1,-1],"split_conditions":[4.5045046E-3,-3.9088628E-1,1.8390805E-1,4.0956732E-2,-3.909729E-1,-3E0,0E0,6E0,-7.952549E-2,-7.1755533E0,-5.8944304E-2,-7.051107E-2,1.98E2,-1.6095092E0,1.3265354E-3,-1.7811928E-2,-3.2706253E-2,2.935534E-2,-1.9962294E-2,6.682488E-3,-2.1822942E-2,2.8940538E-2,1.8957254E-4,9.746828E-3,-1.939295E-2,1.7585348E-2,-2.7906207E-2,-1.0304907E-2,2.8697606E-2,-5.161729E-2,1.2043967E-2],"split_indices":[3,9,3,8,6,21,8,19,13,17,7,14,21,5,8,0,0,0,0,0,0,0,0,0,0,0,0,0,0,0,0],"split_type":[0,0,0,0,0,0,0,0,0,0,0,0,0,0,0,0,0,0,0,0,0,0,0,0,0,0,0,0,0,0,0],"sum_hessian":[6.6672314E2,3.6337158E2,3.0335156E2,1.4883284E2,2.1453873E2,1.2620125E2,1.771503E2,1.27566246E2,2.12666E1,9.297183E1,1.21566895E2,5.6998856E1,6.920239E1,9.1663216E1,8.548709E1,7.0385124E1,5.7181126E1,7.040683E0,1.4225917E1,2.6564548E1,6.640728E1,1.1100329E1,1.1046657E2,2.5607248E1,3.1391605E1,6.328239E1,5.920004E0,6.474128E0,8.5189095E1,2.071309E0,8.341578E1],"tree_param":{"num_deleted":"0","num_feature":"24","num_nodes":"31","size_leaf_vector":"1"}},{"base_weights":[-3.9381438E-4,-4.0412474E-1,1.8492912E-1,-7.8256315E-1,-2.8635973E-1,4.136084E-2,4.5038223E-1,-9.165275E-1,2.627229E-1,2.884142E-1,-3.486255E-1,-8.496594E-2,2.619838E-1,-6.8670714E-1,4.8402068E-1,2.059173E-2,-3.9540537E-2,-1.1317248E-2,5.8744762E-2,2.7761154E-2,-3.401062E-2,-8.898671E-3,-2.9330637E-2,-2.4740035E-2,7.2983E-4,-6.36619E-3,1.8275183E-2,1.6043892E-2,-4.4762958E-2,1.25539405E-2,3.0855078E-2],"categories":[],"categories_nodes":[],"categories_segments":[],"categories_sizes":[],"default_left":[0,0,0,0,0,0,0,0,0,0,0,0,0,0,0,0,0,0,0,0,0,0,0,0,0,0,0,0,0,0,0],"id":31,"left_children":[1,3,5,7,9,11,13,15,17,19,21,23,25,27,29,-1,-1,-1,-1,-1,-1,-1,-1,-1,-1,-1,-1,-1,-1,-1,-1],"loss_changes":[4.9614407E1,9.073524E0,1.7302307E1,7.0933E0,5.8513145E0,8.273728E0,6.430462E0,5.0011215E0,4.5848575E0,8.096865E0,6.8941326E0,1.0420055E1,8.940736E0,2.7978055E0,7.3585777E0,0E0,0E0,0E0,0E0,0E0,0E0,0E0,0E0,0E0,0E0,0E0,0E0,0E0,0E0,0E0,0E0],"parents":[2147483647,0,0,1,1,2,2,3,3,4,4,5,5,6,6,7,7,8,8,9,9,10,10,11,11,12,12,13,13,14,14],"right_children":[2,4,6,8,10,12,14,16,18,20,22,24,26,28,30,-1,-1,-1,-1,-1,-1,-1,-1,-1,-1,-1,-1,-1,-1,-1,-1],"split_conditions":[-4.2604294E1,-8.235911E-1,5.9470894E1,5.3361524E-2,-4.756551E-1,3.8138625E-1,-4.882353E-1,-3.3506205E0,1E0,-1E0,3.9560434E-1,-2.881032E-1,4E0,-5.3799497E-3,6.426142E-1,2.059173E-2,-3.9540537E-2,-1.1317248E-2,5.8744762E-2,2.7761154E-2,-3.401062E-2,-8.898671E-3,-2.9330637E-2,-2.4740035E-2,7.2983E-4,-6.36619E-3,1.8275183E-2,1.6043892E-2,-4.4762958E-2,1.25539405E-2,3.0855078E-2],"split_indices":[0,9,0,8,14,6,11,5,20,2,10,5,19,15,9,0,0,0,0,0,0,0,0,0,0,0,0,0,0,0,0],"split_type":[0,0,0,0,0,0,0,0,0,0,0,0,0,0,0,0,0,0,0,0,0,0,0,0,0,0,0,0,0,0,0],"sum_hessian":[6.611128E2,2.0762206E2,4.5349075E2,4.7935608E1,1.5968645E2,2.9506366E2,1.5842711E2,4.2599247E1,5.336361E0,1.5253134E1,1.444333E2,1.8801996E2,1.0704369E2,3.9942482E0,1.5443286E2,1.7453109E0,4.0853935E1,4.2008853E0,1.1354755E0,1.1534773E1,3.7183607E0,1.0994927E2,3.448403E1,2.9667324E1,1.5835263E2,3.39236E1,7.3120094E1,1.1566132E0,2.837635E0,9.830746E1,5.612541E1],"tree_param":{"num_deleted":"0","num_feature":"24","num_nodes":"31","size_leaf_vector":"1"}},{"base_weights":[9.520291E-3,-1.0758793E-1,4.6817553E-1,-5.8889186E-1,-2.5661644E-2,5.399847E-1,7.2444774E-2,-8.0505186E-1,-2.3571542E-1,-1.8133712E-1,7.992197E-2,3.2248208E-1,8.1919813E-1,5.1581573E-1,-1.4031279E0,-1.926838E-2,-3.9743267E-2,2.7051765E-2,-1.8773943E-2,1.4908697E-2,-1.0580464E-2,3.758316E-2,1.9719445E-3,2.1821026E-2,-6.2411133E-4,-2.6322436E-2,3.5223387E-2,3.4350276E-2,-7.691927E-3,-7.532116E-3,-6.6433355E-2],"categories":[],"categories_nodes":[],"categories_segments":[],"categories_sizes":[],"default_left":[0,0,0,0,0,0,0,0,0,0,0,0,0,0,0,0,0,0,0,0,0,0,0,0,0,0,0,0,0,0,0],"id":32,"left_children":[1,3,5,7,9,11,13,15,17,19,21,23,25,27,29,-1,-1,-1,-1,-1,-1,-1,-1,-1,-1,-1,-1,-1,-1,-1,-1],"loss_changes":[3.5705566E1,2.0868294E1,3.8030186E0,5.687916E0,7.470579E0,6.6762505E0,1.5065053E1,2.4075603E0,6.8471513E0,8.560845E0,7.0877085E0,4.9771557E0,5.0586853E0,4.4360805E0,1.35705E0,0E0,0E0,0E0,0E0,0E0,0E0,0E0,0E0,0E0,0E0,0E0,0E0,0E0,0E0,0E0,0E0],"parents":[2147483647,0,0,1,1,2,2,3,3,4,4,5,5,6,6,7,7,8,8,9,9,10,10,11,11,12,12,13,13,14,14],"right_children":[2,4,6,8,10,12,14,16,18,20,22,24,26,28,30,-1,-1,-1,-1,-1,-1,-1,-1,-1,-1,-1,-1,-1,-1,-1,-1],"split_conditions":[7.32089E1,-1.2388594E2,1.0111828E-1,-4.0773624E-1,-2.33829E-1,4.0596807E-1,1.02E2,4E0,-5E0,-2.3809524E-2,-8.417918E-1,-3.9357103E-2,-2E0,1.4641971E2,-2.7780998E-2,-1.926838E-2,-3.9743267E-2,2.7051765E-2,-1.8773943E-2,1.4908697E-2,-1.0580464E-2,3.758316E-2,1.9719445E-3,2.1821026E-2,-6.2411133E-4,-2.6322436E-2,3.5223387E-2,3.4350276E-2,-7.691927E-3,-7.532116E-3,-6.6433355E-2],"split_indices":[0,0,13,9,5,5,21,19,16,15,14,14,2,0,7,0,0,0,0,0,0,0,0,0,0,0,0,0,0,0,0],"split_type":[0,0,0,0,0,0,0,0,0,0,0,0,0,0,0,0,0,0,0,0,0,0,0,0,0,0,0,0,0,0,0],"sum_hessian":[6.6281805E2,5.28613E2,1.3420508E2,7.599084E1,4.5262213E2,1.13284065E2,2.0921011E1,4.6345703E1,2.9645136E1,1.8262993E2,2.6999222E2,6.489045E1,4.8393612E1,1.658737E1,4.3336406E0,1.8379171E1,2.7966532E1,5.6592045E0,2.3985931E1,2.3383442E1,1.5924648E2,8.266061E0,2.6172614E2,3.872739E1,2.6163063E1,1.5429447E0,4.6850666E1,1.1031871E1,5.5554986E0,1.0613117E0,3.2723286E0],"tree_param":{"num_deleted":"0","num_feature":"24","num_nodes":"31","size_leaf_vector":"1"}},{"base_weights":[-5.073251E-3,-4.0333307E-1,1.7367707E-1,-7.951118E-1,-3.164196E-1,3.2621868E-2,3.7221345E-1,-9.496088E-1,-8.452316E-2,-3.5396296E-1,6.6501963E-1,-8.517264E-1,6.81027E-2,1.6334632E-1,7.217295E-1,-4.546852E-2,-8.391563E-3,-2.6299445E-2,4.649098E-2,-3.972898E-2,-1.2100101E-2,4.3450717E-2,-3.0860437E-2,-4.5360353E-2,1.5304442E-2,-1.2546358E-2,5.3812843E-3,-8.817694E-3,1.48807E-2,3.3731896E-2,2.6878982E-3],"categories":[],"categories_nodes":[],"categories_segments":[],"categories_sizes":[],"default_left":[0,0,0,0,0,0,0,0,0,0,0,0,0,0,0,0,0,0,0,0,0,0,0,0,0,0,0,0,0,0,0],"id":33,"left_children":[1,3,5,7,9,11,13,15,17,19,21,23,25,27,29,-1,-1,-1,-1,-1,-1,-1,-1,-1,-1,-1,-1,-1,-1,-1,-1],"loss_changes":[4.7371773E1,6.767643E0,1.2850714E1,3.9561176E0,6.513052E0,8.518145E0,1.3802734E1,3.9284515E0,6.2390423E0,5.1192265E0,4.8468466E0,4.0834875E0,6.639674E0,9.744491E0,5.595619E0,0E0,0E0,0E0,0E0,0E0,0E0,0E0,0E0,0E0,0E0,0E0,0E0,0E0,0E0,0E0,0E0],"parents":[2147483647,0,0,1,1,2,2,3,3,4,4,5,5,6,6,7,7,8,8,9,9,10,10,11,11,12,12,13,13,14,14],"right_children":[2,4,6,8,10,12,14,16,18,20,22,24,26,28,30,-1,-1,-1,-1,-1,-1,-1,-1,-1,-1,-1,-1,-1,-1,-1,-1],"split_conditions":[-4.2604294E1,-4.9134198E-1,3.2438713E-1,2.6363635E-1,2.4132675E-2,-8.0967027E-1,-2.33829E-1,5.93498E-1,-3.3050725E-1,-1.6095092E0,3.9014858E-1,1.4256226E1,-3.3763435E-1,9.520076E-1,3.8302798E-2,-4.546852E-2,-8.391563E-3,-2.6299445E-2,4.649098E-2,-3.972898E-2,-1.2100101E-2,4.3450717E-2,-3.0860437E-2,-4.5360353E-2,1.5304442E-2,-1.2546358E-2,5.3812843E-3,-8.817694E-3,1.48807E-2,3.3731896E-2,2.6878982E-3],"split_indices":[0,3,6,11,15,5,5,5,6,5,10,17,9,6,7,0,0,0,0,0,0,0,0,0,0,0,0,0,0,0,0],"split_type":[0,0,0,0,0,0,0,0,0,0,0,0,0,0,0,0,0,0,0,0,0,0,0,0,0,0,0,0,0,0,0],"sum_hessian":[6.634521E2,2.0513971E2,4.5831235E2,3.576663E1,1.6937308E2,2.6862512E2,1.8968721E2,2.9102713E1,6.663916E0,1.6374849E2,5.624591E0,9.474367E0,2.5915076E2,1.1965186E2,7.0035355E1,2.2800001E1,6.3027105E0,4.8895807E0,1.7743354E0,1.0836203E1,1.5291228E2,4.5377626E0,1.0868286E0,7.777093E0,1.6972736E0,3.7858864E1,2.212919E2,4.2122894E1,7.752897E1,5.882183E1,1.1213524E1],"tree_param":{"num_deleted":"0","num_feature":"24","num_nodes":"31","size_leaf_vector":"1"}},{"base_weights":[-2.6639074E-2,-1.8161431E-1,2.9174763E-1,-2.907873E-1,9.257866E-2,1.262634E-1,5.201956E-1,-5.9714526E-1,-1.5942816E-1,-1.326019E-1,5.6963897E-1,2.2012845E-1,-4.5913967E-1,2.0603685E-1,6.808091E-1,7.590826E-3,-2.8407106E-2,-9.527174E-3,6.9302935E-3,1.9584429E-2,-1.0579825E-2,2.8526958E-2,-1.347304E-2,-1.6036509E-3,1.7198587E-2,4.581466E-3,-4.1885503E-2,3.4212545E-2,8.733425E-4,3.278443E-2,8.872901E-3],"categories":[],"categories_nodes":[],"categories_segments":[],"categories_sizes":[],"default_left":[0,0,0,0,0,0,0,0,0,0,0,0,0,0,0,0,0,0,0,0,0,0,0,0,0,0,0,0,0,0,0],"id":34,"left_children":[1,3,5,7,9,11,13,15,17,19,21,23,25,27,29,-1,-1,-1,-1,-1,-1,-1,-1,-1,-1,-1,-1,-1,-1,-1,-1],"loss_changes":[3.2559715E1,1.330982E1,8.102789E0,1.26863575E1,1.3731622E1,7.0589113E0,4.4235325E0,8.580353E0,5.901002E0,7.2832294E0,5.568446E0,6.0128264E0,6.131546E0,3.8123085E0,3.6034336E0,0E0,0E0,0E0,0E0,0E0,0E0,0E0,0E0,0E0,0E0,0E0,0E0,0E0,0E0,0E0,0E0],"parents":[2147483647,0,0,1,1,2,2,3,3,4,4,5,5,6,6,7,7,8,8,9,9,10,10,11,11,12,12,13,13,14,14],"right_children":[2,4,6,8,10,12,14,16,18,20,22,24,26,28,30,-1,-1,-1,-1,-1,-1,-1,-1,-1,-1,-1,-1,-1,-1,-1,-1],"split_conditions":[3.503671E1,3.8138625E-1,3.330297E-1,-2.4089582E-1,-6.7725503E-1,9E0,8.5701026E-2,-4.756551E-1,1.1512768E-2,-6.778824E-2,1.1316485E-2,5.462552E-1,0E0,-5.706087E-1,2.406168E-2,7.590826E-3,-2.8407106E-2,-9.527174E-3,6.9302935E-3,1.9584429E-2,-1.0579825E-2,2.8526958E-2,-1.347304E-2,-1.6036509E-3,1.7198587E-2,4.581466E-3,-4.1885503E-2,3.4212545E-2,8.733425E-4,3.278443E-2,8.872901E-3],"split_indices":[0,6,6,5,5,16,9,14,15,7,15,5,8,14,7,0,0,0,0,0,0,0,0,0,0,0,0,0,0,0,0],"split_type":[0,0,0,0,0,0,0,0,0,0,0,0,0,0,0,0,0,0,0,0,0,0,0,0,0,0,0,0,0,0,0],"sum_hessian":[6.578037E2,4.4273254E2,2.150712E2,3.1661014E2,1.26122406E2,1.2562387E2,8.944733E1,9.395076E1,2.2265938E2,8.617051E1,3.99519E1,1.0880221E2,1.682166E1,3.1031921E1,5.84154E1,1.1714828E1,8.223593E1,1.8027089E2,4.2388493E1,1.4596924E1,7.1573586E1,3.467456E1,5.2773395E0,4.893118E1,5.9871033E1,8.92209E0,7.89957E0,6.0530205E0,2.49789E1,4.4248543E1,1.4166861E1],"tree_param":{"num_deleted":"0","num_feature":"24","num_nodes":"31","size_leaf_vector":"1"}},{"base_weights":[1.7143222E-2,-1.7370845E-1,2.9243445E-1,-3.9383274E-1,-3.1788763E-2,5.037367E-2,4.2165917E-1,-4.3536028E-1,6.4662963E-1,-4.2061535E-1,2.4590692E-2,-2.1394825E-1,2.90735E-1,-1.932982E-1,4.8031873E-1,2.8979747E-2,-1.8854562E-2,5.0513733E-2,-2.3806235E-2,2.915722E-3,-3.1880222E-2,-4.3240753E-3,1.7307233E-2,-4.2428073E-2,1.9876836E-3,-1.3751627E-2,2.0061832E-2,-2.7425027E-2,2.1570183E-2,1.7152965E-2,4.3780312E-2],"categories":[],"categories_nodes":[],"categories_segments":[],"categories_sizes":[],"default_left":[0,0,0,0,0,0,0,0,0,0,0,0,0,0,0,0,0,0,0,0,0,0,0,0,0,0,0,0,0,0,0],"id":35,"left_children":[1,3,5,7,9,11,13,15,17,19,21,23,25,27,29,-1,-1,-1,-1,-1,-1,-1,-1,-1,-1,-1,-1,-1,-1,-1,-1],"loss_changes":[3.4193867E1,1.1996497E1,8.313055E0,6.78862E0,5.1578503E0,6.0259686E0,6.3540764E0,6.414009E0,5.482476E0,5.5918365E0,1.1202912E1,1.01614685E1,6.805397E0,6.078125E0,4.5512657E0,0E0,0E0,0E0,0E0,0E0,0E0,0E0,0E0,0E0,0E0,0E0,0E0,0E0,0E0,0E0,0E0],"parents":[2147483647,0,0,1,1,2,2,3,3,4,4,5,5,6,6,7,7,8,8,9,9,10,10,11,11,12,12,13,13,14,14],"right_children":[2,4,6,8,10,12,14,16,18,20,22,24,26,28,30,-1,-1,-1,-1,-1,-1,-1,-1,-1,-1,-1,-1,-1,-1,-1,-1],"split_conditions":[1.5263693E1,-3.909729E-1,1.6976352E-1,6.8627454E-2,-1.6369425E-1,-3E0,-8E0,-8.078995E-1,1.6976352E-1,-6.944445E-2,6.8595403E-1,-1.1481643E1,-4.0873384E-1,3.5714287E-1,2.4531944E2,2.8979747E-2,-1.8854562E-2,5.0513733E-2,-2.3806235E-2,2.915722E-3,-3.1880222E-2,-4.3240753E-3,1.7307233E-2,-4.2428073E-2,1.9876836E-3,-1.3751627E-2,2.0061832E-2,-2.7425027E-2,2.1570183E-2,1.7152965E-2,4.3780312E-2],"split_indices":[0,6,3,3,13,21,16,14,3,11,6,18,10,3,0,0,0,0,0,0,0,0,0,0,0,0,0,0,0,0,0],"split_type":[0,0,0,0,0,0,0,0,0,0,0,0,0,0,0,0,0,0,0,0,0,0,0,0,0,0,0,0,0,0,0],"sum_hessian":[6.488516E2,3.8341193E2,2.654397E2,1.4960002E2,2.338119E2,9.286914E1,1.7257056E2,1.4441753E2,5.1825085E0,2.8791054E1,2.0502084E2,4.4282352E1,4.8586784E1,1.4827825E1,1.5774274E2,3.7722597E0,1.4064526E2,3.4523728E0,1.7301357E0,1.2806283E1,1.5984772E1,1.5526933E2,4.9751507E1,9.796122E0,3.4486233E1,1.1959308E1,3.6627476E1,8.906252E0,5.9215736E0,1.4710724E2,1.0635499E1],"tree_param":{"num_deleted":"0","num_feature":"24","num_nodes":"31","size_leaf_vector":"1"}},{"base_weights":[-8.936269E-3,-1.5777268E-1,2.54634E-1,-5.0393635E-1,-7.6382965E-2,9.570908E-2,4.5823467E-1,-7.400454E-1,-1.6487256E-1,-2.4718581E-1,2.390545E-2,2.7956182E-1,-1.7570822E-1,2.5921226E-1,8.7464523E-1,-3.4359645E-2,1.173699E-2,-3.488318E-2,3.9177E-3,-1.5962647E-2,2.9084766E-3,-1.0911764E-2,8.405815E-3,-3.1556934E-2,1.4153088E-2,-1.9125497E-2,2.9464392E-2,5.9729926E-3,4.413229E-2,-8.48127E-3,3.964776E-2],"categories":[],"categories_nodes":[],"categories_segments":[],"categories_sizes":[],"default_left":[0,0,0,0,0,0,0,0,0,0,0,0,0,0,0,0,0,0,0,0,0,0,0,0,0,0,0,0,0,0,0],"id":36,"left_children":[1,3,5,7,9,11,13,15,17,19,21,23,25,27,29,-1,-1,-1,-1,-1,-1,-1,-1,-1,-1,-1,-1,-1,-1,-1,-1],"loss_changes":[2.5645107E1,1.1731666E1,7.5905876E0,6.230236E0,5.8199615E0,6.7245255E0,8.323425E0,5.966753E0,6.378586E0,6.1340218E0,1.1924577E1,6.6381617E0,1.5426934E1,6.4419274E0,4.3823338E0,0E0,0E0,0E0,0E0,0E0,0E0,0E0,0E0,0E0,0E0,0E0,0E0,0E0,0E0,0E0,0E0],"parents":[2147483647,0,0,1,1,2,2,3,3,4,4,5,5,6,6,7,7,8,8,9,9,10,10,11,11,12,12,13,13,14,14],"right_children":[2,4,6,8,10,12,14,16,18,20,22,24,26,28,30,-1,-1,-1,-1,-1,-1,-1,-1,-1,-1,-1,-1,-1,-1,-1,-1],"split_conditions":[2.8086416E1,-1.1680709E2,3.412204E-1,-4.0773624E-1,-3.653701E-1,4.8387095E-2,-6.0640434E-3,5.49969E-1,-2.5907427E-1,2.6E1,-7.47777E-1,-4.6666667E-1,1.5013635E0,2.2649573E-1,-8.5174614E-1,-3.4359645E-2,1.173699E-2,-3.488318E-2,3.9177E-3,-1.5962647E-2,2.9084766E-3,-1.0911764E-2,8.405815E-3,-3.1556934E-2,1.4153088E-2,-1.9125497E-2,2.9464392E-2,5.9729926E-3,4.413229E-2,-8.48127E-3,3.964776E-2],"split_indices":[0,0,6,9,6,11,13,6,10,21,5,11,5,11,5,0,0,0,0,0,0,0,0,0,0,0,0,0,0,0,0],"split_type":[0,0,0,0,0,0,0,0,0,0,0,0,0,0,0,0,0,0,0,0,0,0,0,0,0,0,0,0,0,0,0],"sum_hessian":[6.517067E2,4.1676413E2,2.3494258E2,7.834756E1,3.3841656E2,1.3277345E2,1.0216912E2,4.548866E1,3.2858902E1,1.2465308E2,2.1376347E2,7.913736E1,5.3636097E1,7.022686E1,3.194226E1,4.0944984E1,4.5436735E0,8.274607E0,2.4584297E1,8.4355484E1,4.0297604E1,8.225615E1,1.3150732E2,4.517618E0,7.461974E1,4.0640022E1,1.2996071E1,6.31789E1,7.0479603E0,3.0146885E0,2.8927572E1],"tree_param":{"num_deleted":"0","num_feature":"24","num_nodes":"31","size_leaf_vector":"1"}},{"base_weights":[-1.588687E-2,-1.9549754E-1,1.9674304E-1,1.8386683E-1,-2.610302E-1,1.2955764E-1,5.0330144E-1,-4.659553E-1,3.9288455E-1,-3.242166E-1,1.7457557E-1,3.0431905E-1,8.05405E-3,5.8147734E-1,-2.7902058E-1,3.7058823E-2,-4.105568E-2,1.879512E-2,-4.0676054E-2,-2.4366157E-2,-9.131859E-3,-1.9704368E-2,1.7581772E-2,-1.1051779E-2,1.682107E-2,-1.3202524E-2,9.219582E-3,-1.4110409E-2,2.6210109E-2,-4.652895E-2,2.6622033E-2],"categories":[],"categories_nodes":[],"categories_segments":[],"categories_sizes":[],"default_left":[0,0,0,0,0,0,0,0,0,0,0,0,0,0,0,0,0,0,0,0,0,0,0,0,0,0,0,0,0,0,0],"id":37,"left_children":[1,3,5,7,9,11,13,15,17,19,21,23,25,27,29,-1,-1,-1,-1,-1,-1,-1,-1,-1,-1,-1,-1,-1,-1,-1,-1],"loss_changes":[2.5077255E1,8.896212E0,6.128422E0,7.3833666E0,8.421225E0,5.263726E0,3.4471455E0,1.1375893E1,4.890447E0,7.1242466E0,7.1371536E0,6.977002E0,1.1155979E1,3.6191444E0,5.4139957E0,0E0,0E0,0E0,0E0,0E0,0E0,0E0,0E0,0E0,0E0,0E0,0E0,0E0,0E0,0E0,0E0],"parents":[2147483647,0,0,1,1,2,2,3,3,4,4,5,5,6,6,7,7,8,8,9,9,10,10,11,11,12,12,13,13,14,14],"right_children":[2,4,6,8,10,12,14,16,18,20,22,24,26,28,30,-1,-1,-1,-1,-1,-1,-1,-1,-1,-1,-1,-1,-1,-1,-1,-1],"split_conditions":[4.5045046E-3,-4.756551E-1,6E0,-1.5899457E-1,1.27E2,1E0,1.48E2,-6E0,1.0106368E0,-3.3333334E-1,-3E0,-5E0,1.8055555E-1,-1.08392E0,-5.5555557E-3,3.7058823E-2,-4.105568E-2,1.879512E-2,-4.0676054E-2,-2.4366157E-2,-9.131859E-3,-1.9704368E-2,1.7581772E-2,-1.1051779E-2,1.682107E-2,-1.3202524E-2,9.219582E-3,-1.4110409E-2,2.6210109E-2,-4.652895E-2,2.6622033E-2],"split_indices":[3,14,2,13,21,2,21,16,10,3,2,16,3,5,12,0,0,0,0,0,0,0,0,0,0,0,0,0,0,0,0],"split_type":[0,0,0,0,0,0,0,0,0,0,0,0,0,0,0,0,0,0,0,0,0,0,0,0,0,0,0,0,0,0,0],"sum_hessian":[6.5462714E2,3.5491086E2,2.9971628E2,5.2011856E1,3.02899E2,2.4700519E2,5.2711086E1,1.2359071E1,3.9652786E1,2.6475143E2,3.8147568E1,1.0068419E2,1.46321E2,4.815571E1,4.555376E0,3.3593976E0,8.999673E0,3.823153E1,1.4212583E0,6.5330894E1,1.9942053E2,1.0599405E1,2.7548164E1,1.65612E1,8.412299E1,5.787031E1,8.845068E1,3.2476993E0,4.490801E1,2.2333128E0,2.3220634E0],"tree_param":{"num_deleted":"0","num_feature":"24","num_nodes":"31","size_leaf_vector":"1"}},{"base_weights":[-3.8092397E-2,-3.8381985E-1,1.07822224E-1,-8.013058E-1,-3.00489E-1,4.527737E-2,4.5627967E-1,-9.226208E-1,-2.1657535E-1,-8.5637784E-1,-2.4642447E-1,7.330706E-1,2.061205E-2,-7.375159E-1,5.270703E-1,6.5592444E-3,-3.9229177E-2,2.9413821E-2,-3.884252E-2,1.5843125E-2,-4.082965E-2,-1.2536411E-2,1.5449386E-2,7.634655E-3,5.4419775E-2,-3.660798E-3,8.032351E-3,-5.2321568E-2,5.2073887E-3,7.0504597E-3,3.464595E-2],"categories":[],"categories_nodes":[],"categories_segments":[],"categories_sizes":[],"default_left":[0,0,0,0,0,0,0,0,0,0,0,0,0,0,0,0,0,0,0,0,0,0,0,0,0,0,0,0,0,0,0],"id":38,"left_children":[1,3,5,7,9,11,13,15,17,19,21,23,25,27,29,-1,-1,-1,-1,-1,-1,-1,-1,-1,-1,-1,-1,-1,-1,-1,-1],"loss_changes":[3.2869602E1,6.48596E0,9.9697E0,2.0398254E0,4.681239E0,6.5968266E0,6.274534E0,1.7924385E0,5.5488043E0,3.291381E0,6.467705E0,4.320721E0,7.6417103E0,2.306679E0,7.7375336E0,0E0,0E0,0E0,0E0,0E0,0E0,0E0,0E0,0E0,0E0,0E0,0E0,0E0,0E0,0E0,0E0],"parents":[2147483647,0,0,1,1,2,2,3,3,4,4,5,5,6,6,7,7,8,8,9,9,10,10,11,11,12,12,13,13,14,14],"right_children":[2,4,6,8,10,12,14,16,18,20,22,24,26,28,30,-1,-1,-1,-1,-1,-1,-1,-1,-1,-1,-1,-1,-1,-1,-1,-1],"split_conditions":[-4.412999E1,-1.826686E2,1.2936679E2,3.423389E-1,-1.6095092E0,-2.92E2,-3.3333334E-1,-1.0082828E0,3.407234E-1,-4.540953E0,5.5997956E-1,4.0682416E-2,3.5168362E-1,4.1666666E-1,5.6806296E-1,6.5592444E-3,-3.9229177E-2,2.9413821E-2,-3.884252E-2,1.5843125E-2,-4.082965E-2,-1.2536411E-2,1.5449386E-2,7.634655E-3,5.4419775E-2,-3.660798E-3,8.032351E-3,-5.2321568E-2,5.2073887E-3,7.0504597E-3,3.464595E-2],"split_indices":[0,0,0,14,5,21,11,10,10,5,6,7,6,4,9,0,0,0,0,0,0,0,0,0,0,0,0,0,0,0,0],"split_type":[0,0,0,0,0,0,0,0,0,0,0,0,0,0,0,0,0,0,0,0,0,0,0,0,0,0,0,0,0,0,0],"sum_hessian":[6.497507E2,1.9235583E2,4.5739487E2,3.0572454E1,1.6178339E2,3.8874814E2,6.864672E1,2.484083E1,5.7316246E0,1.30246525E1,1.4875873E2,1.246415E1,3.76284E2,3.3155649E0,6.5331154E1,1.1685014E0,2.3672329E1,2.5454526E0,3.1861718E0,1.3474281E0,1.1677224E1,1.3497249E2,1.3786248E1,7.3857617E0,5.078388E0,2.3225162E2,1.4403236E2,1.6941586E0,1.6214063E0,3.2857147E1,3.2474007E1],"tree_param":{"num_deleted":"0","num_feature":"24","num_nodes":"31","size_leaf_vector":"1"}},{"base_weights":[2.2999374E-2,-2.4755463E-1,1.5919636E-1,-6.2616897E-1,-1.7426215E-1,6.297175E-3,3.8140726E-1,-4.3452662E-1,-4.734387E-2,1.8940724E-1,-2.59561E-1,1.483112E-1,-1.6885069E-1,2.3404643E-1,6.7722213E-1,1.941734E-2,-2.517142E-2,-1.0316543E-2,2.379132E-2,-8.22395E-3,-4.174316E-2,1.6461372E-2,-1.5545578E-3,-1.3050177E-2,6.3542756E-3,3.0397274E-2,5.3681955E-3,6.554457E-2,2.267447E-2],"categories":[],"categories_nodes":[],"categories_segments":[],"categories_sizes":[],"default_left":[0,0,0,0,0,0,0,0,0,0,0,0,0,0,0,0,0,0,0,0,0,0,0,0,0,0,0,0,0],"id":39,"left_children":[1,3,5,7,9,11,13,15,-1,17,19,21,23,25,27,-1,-1,-1,-1,-1,-1,-1,-1,-1,-1,-1,-1,-1,-1],"loss_changes":[2.3923122E1,5.9242277E0,1.4666206E1,3.2114735E0,5.742812E0,6.4118567E0,7.5120316E0,5.2387576E0,0E0,6.58156E0,6.093253E0,7.0284767E0,6.006567E0,6.1451883E0,5.2229767E0,0E0,0E0,0E0,0E0,0E0,0E0,0E0,0E0,0E0,0E0,0E0,0E0,0E0,0E0],"parents":[2147483647,0,0,1,1,2,2,3,3,4,4,5,5,6,6,7,7,9,9,10,10,11,11,12,12,13,13,14,14],"right_children":[2,4,6,8,10,12,14,16,-1,18,20,22,24,26,28,-1,-1,-1,-1,-1,-1,-1,-1,-1,-1,-1,-1,-1,-1],"split_conditions":[-3.327468E1,-4.9134198E-1,3.1454477E-1,-5.3186816E-1,-3.3962265E-1,6E0,3E0,3E0,-4.734387E-2,-5.9664935E-2,3.4910485E-1,1E0,9E0,-7.7E1,1.2305681E1,1.941734E-2,-2.517142E-2,-1.0316543E-2,2.379132E-2,-8.22395E-3,-4.174316E-2,1.6461372E-2,-1.5545578E-3,-1.3050177E-2,6.3542756E-3,3.0397274E-2,5.3681955E-3,6.554457E-2,2.267447E-2],"split_indices":[0,3,6,3,14,19,2,19,0,13,12,2,19,21,0,0,0,0,0,0,0,0,0,0,0,0,0,0,0],"split_type":[0,0,0,0,0,0,0,0,0,0,0,0,0,0,0,0,0,0,0,0,0,0,0,0,0,0,0,0,0],"sum_hessian":[6.471573E2,2.1642113E2,4.3073615E2,3.3876823E1,1.8254431E2,2.5577232E2,1.7496382E2,2.6534014E1,7.342809E0,3.4449455E1,1.4809486E2,1.4133102E2,1.1444131E2,1.1798201E2,5.6981815E1,4.3751483E0,2.2158865E1,1.6550362E1,1.7899094E1,1.3973915E2,8.355704E0,5.8235783E1,8.309524E1,7.731161E1,3.7129696E1,1.7770393E1,1.0021162E2,4.441585E0,5.254023E1],"tree_param":{"num_deleted":"0","num_feature":"24","num_nodes":"29","size_leaf_vector":"1"}},{"base_weights":[2.6060922E-2,-1.1587457E-1,3.1012434E-1,-2.0817554E-1,1.6594142E-1,1.4976278E-1,5.3150934E-1,-5.190291E-1,-6.422128E-2,-2.3762797E-1,4.5588076E-1,2.886707E-1,-2.4188581E-1,6.3165987E-1,-4.8729217E-1,1.3304248E-2,-2.3466486E-2,-7.035459E-3,9.987161E-3,-1.923283E-2,1.0337653E-2,-1.1649776E-3,2.6390187E-2,-2.1868886E-4,1.7996307E-2,-1.916342E-2,2.8322825E-2,1.3570104E-2,3.5178125E-2,-3.9816983E-2,2.7139392E-2],"categories":[],"categories_nodes":[],"categories_segments":[],"categories_sizes":[],"default_left":[0,0,0,0,0,0,0,0,0,0,0,0,0,0,0,0,0,0,0,0,0,0,0,0,0,0,0,0,0,0,0],"id":40,"left_children":[1,3,5,7,9,11,13,15,17,19,21,23,25,27,29,-1,-1,-1,-1,-1,-1,-1,-1,-1,-1,-1,-1,-1,-1,-1,-1],"loss_changes":[2.6034739E1,1.1238218E1,7.5574856E0,1.4505194E1,1.2607492E1,6.932537E0,9.488117E0,6.1101036E0,7.867463E0,5.5912733E0,6.199624E0,4.440324E0,7.9037523E0,5.668873E0,5.7801147E0,0E0,0E0,0E0,0E0,0E0,0E0,0E0,0E0,0E0,0E0,0E0,0E0,0E0,0E0,0E0,0E0],"parents":[2147483647,0,0,1,1,2,2,3,3,4,4,5,5,6,6,7,7,8,8,9,9,10,10,11,11,12,12,13,13,14,14],"right_children":[2,4,6,8,10,12,14,16,18,20,22,24,26,28,30,-1,-1,-1,-1,-1,-1,-1,-1,-1,-1,-1,-1,-1,-1,-1,-1],"split_conditions":[3.503671E1,4.8997736E-1,2.5746204E-2,-2.4089582E-1,-5.2159405E-1,1.9422987E-2,1.48E2,-1.62E2,4.2E1,1E0,4E0,1.9792284E-1,1.255264E0,-2.990402E-1,4.1072045E-2,1.3304248E-2,-2.3466486E-2,-7.035459E-3,9.987161E-3,-1.923283E-2,1.0337653E-2,-1.1649776E-3,2.6390187E-2,-2.1868886E-4,1.7996307E-2,-1.916342E-2,2.8322825E-2,1.3570104E-2,3.5178125E-2,-3.9816983E-2,2.7139392E-2],"split_indices":[0,6,13,5,10,8,21,21,21,22,19,6,6,6,6,0,0,0,0,0,0,0,0,0,0,0,0,0,0,0,0],"split_type":[0,0,0,0,0,0,0,0,0,0,0,0,0,0,0,0,0,0,0,0,0,0,0,0,0,0,0,0,0,0,0],"sum_hessian":[6.438327E2,4.2971356E2,2.1411916E2,3.238928E2,1.0582075E2,1.2514564E2,8.897351E1,1.01692795E2,2.2220001E2,4.4316544E1,6.1504204E1,9.257467E1,3.2570972E1,8.135602E1,7.617489E0,7.193576E0,9.449922E1,1.642207E2,5.7979313E1,2.9758492E1,1.4558051E1,1.8455854E1,4.304835E1,3.3120472E1,5.9454197E1,2.6459766E1,6.111204E0,3.8405216E1,4.2950806E1,5.406891E0,2.210598E0],"tree_param":{"num_deleted":"0","num_feature":"24","num_nodes":"31","size_leaf_vector":"1"}},{"base_weights":[1.356659E-2,-2.2713265E-1,1.7504427E-1,-5.306952E-1,-1.2645261E-1,-3.054952E-1,2.2513434E-1,7.758637E-1,-6.2203795E-1,-1.8953116E-1,8.7748975E-1,-8.67557E-1,9.442212E-2,3.473705E-1,4.8310872E-2,4.4501125E-4,5.8282163E-2,-3.7987165E-2,-1.6712278E-2,1.1545347E-2,-1.0557691E-2,4.1677463E-3,5.825628E-2,-1.2882013E-2,-6.129478E-2,2.7453916E-2,-9.374E-3,1.8459912E-2,-2.2523592E-3,-2.7559666E-2,5.7051703E-3],"categories":[],"categories_nodes":[],"categories_segments":[],"categories_sizes":[],"default_left":[0,0,0,0,0,0,0,0,0,0,0,0,0,0,0,0,0,0,0,0,0,0,0,0,0,0,0,0,0,0,0],"id":41,"left_children":[1,3,5,7,9,11,13,15,17,19,21,23,25,27,29,-1,-1,-1,-1,-1,-1,-1,-1,-1,-1,-1,-1,-1,-1,-1,-1],"loss_changes":[2.5016306E1,7.831746E0,9.339653E0,8.127331E0,1.2539937E1,8.349777E0,7.534725E0,2.3959992E0,3.6465359E0,6.6466494E0,5.0988064E0,5.0876207E0,4.5186944E0,9.535599E0,1.0109703E1,0E0,0E0,0E0,0E0,0E0,0E0,0E0,0E0,0E0,0E0,0E0,0E0,0E0,0E0,0E0,0E0],"parents":[2147483647,0,0,1,1,2,2,3,3,4,4,5,5,6,6,7,7,8,8,9,9,10,10,11,11,12,12,13,13,14,14],"right_children":[2,4,6,8,10,12,14,16,18,20,22,24,26,28,30,-1,-1,-1,-1,-1,-1,-1,-1,-1,-1,-1,-1,-1,-1,-1,-1],"split_conditions":[-6.993007E-2,-4.0555555E-1,-8E0,-9.632671E-2,1.1663569E0,-1.53501695E-2,3.3716474E-2,-1.4266247E-1,-7.993342E-1,-4.756551E-1,-1.9281046E-1,1.0928961E-2,-1.7886225E-2,2.6396934E-2,-1.34E2,4.4501125E-4,5.8282163E-2,-3.7987165E-2,-1.6712278E-2,1.1545347E-2,-1.0557691E-2,4.1677463E-3,5.825628E-2,-1.2882013E-2,-6.129478E-2,2.7453916E-2,-9.374E-3,1.8459912E-2,-2.2523592E-3,-2.7559666E-2,5.7051703E-3],"split_indices":[3,3,16,7,5,6,11,13,9,14,3,12,7,8,21,0,0,0,0,0,0,0,0,0,0,0,0,0,0,0,0],"split_type":[0,0,0,0,0,0,0,0,0,0,0,0,0,0,0,0,0,0,0,0,0,0,0,0,0,0,0,0,0,0,0],"sum_hessian":[6.416066E2,2.5744763E2,3.84159E2,6.3055756E1,1.9439188E2,3.57823E1,3.4837668E2,3.63056E0,5.9425198E1,1.8366338E2,1.0728511E1,1.438942E1,2.139288E1,2.0541263E2,1.4296407E2,2.1891937E0,1.4413661E0,2.1416834E1,3.8008366E1,2.4344843E1,1.5931853E2,5.098331E0,5.6301804E0,8.719294E0,5.670126E0,7.250811E0,1.4142068E1,1.6002695E2,4.538568E1,1.5499209E1,1.2746485E2],"tree_param":{"num_deleted":"0","num_feature":"24","num_nodes":"31","size_leaf_vector":"1"}},{"base_weights":[-1.0158667E-2,-2.7060464E-1,1.2127511E-1,1.9385777E-1,-3.3755782E-1,3.350899E-2,3.4103888E-1,-3.6158985E-1,5.373856E-1,-8.788821E-1,-2.558317E-1,5.589153E-1,-9.431387E-3,3.8989565E-1,-7.0643675E-1,4.114106E-2,-2.48865E-2,3.7123527E-2,-1.1956112E-3,7.0212446E-3,-3.8442075E-2,-1.1873101E-2,4.2202566E-2,4.2357538E-2,-5.8691767E-3,-7.5628096E-3,5.2107847E-3,3.1939957E-3,2.1355433E-2,4.0109553E-3,-6.638347E-2],"categories":[],"categories_nodes":[],"categories_segments":[],"categories_sizes":[],"default_left":[0,0,0,0,0,0,0,0,0,0,0,0,0,0,0,0,0,0,0,0,0,0,0,0,0,0,0,0,0,0,0],"id":42,"left_children":[1,3,5,7,9,11,13,15,17,19,21,23,25,27,29,-1,-1,-1,-1,-1,-1,-1,-1,-1,-1,-1,-1,-1,-1,-1,-1],"loss_changes":[2.1972536E1,6.7597694E0,8.217775E0,5.4907207E0,8.115067E0,6.9089637E0,6.5012207E0,4.698557E0,3.918013E0,2.2755356E0,9.191059E0,8.318581E0,7.1483884E0,5.1751614E0,4.6084375E0,0E0,0E0,0E0,0E0,0E0,0E0,0E0,0E0,0E0,0E0,0E0,0E0,0E0,0E0,0E0,0E0],"parents":[2147483647,0,0,1,1,2,2,3,3,4,4,5,5,6,6,7,7,8,8,9,9,10,10,11,11,12,12,13,13,14,14],"right_children":[2,4,6,8,10,12,14,16,18,20,22,24,26,28,30,-1,-1,-1,-1,-1,-1,-1,-1,-1,-1,-1,-1,-1,-1,-1,-1],"split_conditions":[-3.327468E1,-4.756551E-1,7.526009E1,-1.733968E-2,-1.2292244E0,-8.417918E-1,5.567438E-2,-1.4994862E0,7.596795E-3,-7.8047775E-2,8.2734805E-1,1.2337028E0,-1.1157201E-1,2.6068377E-1,2.1588103E-1,4.114106E-2,-2.48865E-2,3.7123527E-2,-1.1956112E-3,7.0212446E-3,-3.8442075E-2,-1.1873101E-2,4.2202566E-2,4.2357538E-2,-5.8691767E-3,-7.5628096E-3,5.2107847E-3,3.1939957E-3,2.1355433E-2,4.0109553E-3,-6.638347E-2],"split_indices":[0,14,0,8,5,14,8,14,17,7,6,6,6,3,14,0,0,0,0,0,0,0,0,0,0,0,0,0,0,0,0],"split_type":[0,0,0,0,0,0,0,0,0,0,0,0,0,0,0,0,0,0,0,0,0,0,0,0,0,0,0,0,0,0,0],"sum_hessian":[6.399238E2,2.1427094E2,4.2565292E2,2.6757244E1,1.8751369E2,3.0499918E2,1.2065374E2,1.0204723E1,1.655252E1,2.3316917E1,1.6419676E2,2.2135794E1,2.8286337E2,1.1587675E2,4.7769923E0,1.145654E0,9.05907E0,9.425091E0,7.12743E0,1.6035652E0,2.1713352E1,1.5996765E2,4.2291236E0,1.2662453E1,9.47334E0,1.2358911E2,1.5927428E2,3.724144E1,7.863531E1,3.0718722E0,1.7051202E0],"tree_param":{"num_deleted":"0","num_feature":"24","num_nodes":"31","size_leaf_vector":"1"}},{"base_weights":[1.727099E-2,-1.1019999E-1,2.413197E-1,-2.982546E-1,-1.0878113E-3,1.927185E-1,7.529946E-1,-6.225279E-1,-1.5706985E-1,-7.779725E-1,3.3137735E-2,5.273812E-2,3.6792153E-1,9.8738545E-1,-2.0777458E-2,-2.838165E-2,1.6751837E-2,-1.8187579E-3,-2.430525E-2,-4.64179E-2,4.6790172E-3,-1.2695007E-2,4.323553E-3,8.502554E-3,-1.1265538E-2,1.751097E-2,-8.26816E-3,-4.662639E-3,4.6571724E-2,3.4077324E-2,-3.1799376E-2],"categories":[],"categories_nodes":[],"categories_segments":[],"categories_sizes":[],"default_left":[0,0,0,0,0,0,0,0,0,0,0,0,0,0,0,0,0,0,0,0,0,0,0,0,0,0,0,0,0,0,0],"id":43,"left_children":[1,3,5,7,9,11,13,15,17,19,21,23,25,27,29,-1,-1,-1,-1,-1,-1,-1,-1,-1,-1,-1,-1,-1,-1,-1,-1],"loss_changes":[1.81913E1,8.331871E0,5.598259E0,6.728175E0,6.885175E0,5.1863728E0,3.5916271E0,4.3643074E0,5.2625837E0,3.8757915E0,6.5508895E0,6.428011E0,3.867754E0,3.0911455E0,4.432058E0,0E0,0E0,0E0,0E0,0E0,0E0,0E0,0E0,0E0,0E0,0E0,0E0,0E0,0E0,0E0,0E0],"parents":[2147483647,0,0,1,1,2,2,3,3,4,4,5,5,6,6,7,7,8,8,9,9,10,10,11,11,12,12,13,13,14,14],"right_children":[2,4,6,8,10,12,14,16,18,20,22,24,26,28,30,-1,-1,-1,-1,-1,-1,-1,-1,-1,-1,-1,-1,-1,-1,-1,-1],"split_conditions":[2.8086416E1,-3.9088628E-1,2.1429018E2,-1.144322E2,-5.1666665E-1,9.211101E-4,7E0,7.9802614E-1,2.6693141E0,4.1E1,-1.8099917E-1,1E0,4.4342107E-1,-2.0606269E-1,-2.5907427E-1,-2.838165E-2,1.6751837E-2,-1.8187579E-3,-2.430525E-2,-4.64179E-2,4.6790172E-3,-1.2695007E-2,4.323553E-3,8.502554E-3,-1.1265538E-2,1.751097E-2,-8.26816E-3,-4.662639E-3,4.6571724E-2,3.4077324E-2,-3.1799376E-2],"split_indices":[0,9,0,0,3,15,19,6,1,21,12,20,3,6,10,0,0,0,0,0,0,0,0,0,0,0,0,0,0,0,0],"split_type":[0,0,0,0,0,0,0,0,0,0,0,0,0,0,0,0,0,0,0,0,0,0,0,0,0,0,0,0,0,0,0],"sum_hessian":[6.350256E2,4.050712E2,2.2995435E2,1.4809547E2,2.5697574E2,2.1126418E2,1.869018E1,4.3886837E1,1.0420864E2,9.926379E0,2.4704936E2,1.18159966E2,9.31042E1,1.4132959E1,4.557221E0,4.0796486E1,3.0903497E0,8.440342E1,1.980522E1,6.746468E0,3.179911E0,4.295121E1,2.0409814E2,8.0193344E1,3.796662E1,8.322531E1,9.878892E0,1.9991045E0,1.2133855E1,2.0951297E0,2.4620912E0],"tree_param":{"num_deleted":"0","num_feature":"24","num_nodes":"31","size_leaf_vector":"1"}},{"base_weights":[9.435611E-3,-1.1686067E-1,2.6587874E-1,-5.398413E-1,-4.9851455E-2,2.2032374E-1,9.7688997E-1,8.0799335E-1,-6.502949E-1,8.8973385E-1,-7.945035E-2,-7.3437655E-1,2.448563E-1,5.5879325E-4,4.453057E-2,5.7077006E-4,5.7778433E-2,-5.5831936E-3,-3.1190986E-2,-2.6613783E-2,4.563253E-2,-8.254996E-3,2.7524263E-3,2.1227466E-2,-5.3317554E-2,4.9050483E-3,1.8769754E-2],"categories":[],"categories_nodes":[],"categories_segments":[],"categories_sizes":[],"default_left":[0,0,0,0,0,0,0,0,0,0,0,0,0,0,0,0,0,0,0,0,0,0,0,0,0,0,0],"id":44,"left_children":[1,3,5,7,9,11,13,15,17,19,21,23,25,-1,-1,-1,-1,-1,-1,-1,-1,-1,-1,-1,-1,-1,-1],"loss_changes":[2.0782381E1,1.216043E1,6.6426544E0,9.264519E0,1.0424165E1,4.8703985E0,1.6203384E0,2.4507773E0,3.5155525E0,5.2302656E0,6.8231516E0,4.695941E0,5.3182154E0,0E0,0E0,0E0,0E0,0E0,0E0,0E0,0E0,0E0,0E0,0E0,0E0,0E0,0E0],"parents":[2147483647,0,0,1,1,2,2,3,3,4,4,5,5,6,6,7,7,8,8,9,9,10,10,11,11,12,12],"right_children":[2,4,6,8,10,12,14,16,18,20,22,24,26,-1,-1,-1,-1,-1,-1,-1,-1,-1,-1,-1,-1,-1,-1],"split_conditions":[3.503671E1,-4.1666666E-1,2.4531944E2,-9.632671E-2,-2.92E2,-5.5714285E-1,3.515438E-1,-1.4266247E-1,3E0,-1.704561E1,-7.707993E-2,3.9276347E-1,5.841688E-1,5.5879325E-4,4.453057E-2,5.7077006E-4,5.7778433E-2,-5.5831936E-3,-3.1190986E-2,-2.6613783E-2,4.563253E-2,-8.254996E-3,2.7524263E-3,2.1227466E-2,-5.3317554E-2,4.9050483E-3,1.8769754E-2],"split_indices":[0,3,0,7,21,11,9,13,19,17,9,9,5,0,0,0,0,0,0,0,0,0,0,0,0,0,0],"split_type":[0,0,0,0,0,0,0,0,0,0,0,0,0,0,0,0,0,0,0,0,0,0,0,0,0,0,0],"sum_hessian":[6.397135E2,4.2898566E2,2.1072786E2,5.7701523E1,3.7128415E2,1.9927036E2,1.1457518E1,3.8920982E0,5.380942E1,1.0451535E1,3.608326E2,4.2673893E0,1.9500296E2,1.558141E0,9.899377E0,2.1870713E0,1.705027E0,1.1303261E1,4.2506165E1,1.2235367E0,9.227999E0,1.9419366E2,1.6663893E2,1.4070284E0,2.860361E0,1.27238914E2,6.7764046E1],"tree_param":{"num_deleted":"0","num_feature":"24","num_nodes":"27","size_leaf_vector":"1"}},{"base_weights":[2.6693698E-3,-2.1738388E-1,1.0687766E-1,-8.7852854E-1,-1.6402885E-1,2.1298174E-2,3.8788626E-1,-9.955378E-1,1.2284876E-2,-4.585446E-1,-6.895939E-2,7.0514506E-1,-4.227621E-3,4.943941E-2,5.775576E-1,-4.899617E-3,-4.484394E-2,-1.1255424E-2,-4.2815723E-2,1.274863E-2,-7.219081E-3,-3.1424733E-3,4.1872747E-2,1.9273814E-3,-1.8716207E-2,-7.704908E-3,3.567566E-2,-1.6328558E-2,2.661063E-2],"categories":[],"categories_nodes":[],"categories_segments":[],"categories_sizes":[],"default_left":[0,0,0,0,0,0,0,0,0,0,0,0,0,0,0,0,0,0,0,0,0,0,0,0,0,0,0,0,0],"id":45,"left_children":[1,3,5,7,9,11,13,15,-1,17,19,21,23,25,27,-1,-1,-1,-1,-1,-1,-1,-1,-1,-1,-1,-1,-1,-1],"loss_changes":[1.4603332E1,7.075427E0,1.0384386E1,2.3941545E0,5.305313E0,5.80396E0,6.443924E0,1.3904676E0,0E0,4.721447E0,6.338001E0,3.285923E0,7.832369E0,7.7793107E0,5.850149E0,0E0,0E0,0E0,0E0,0E0,0E0,0E0,0E0,0E0,0E0,0E0,0E0,0E0,0E0],"parents":[2147483647,0,0,1,1,2,2,3,3,4,4,5,5,6,6,7,7,9,9,10,10,11,11,12,12,13,13,14,14],"right_children":[2,4,6,8,10,12,14,16,